19 500
. 0.172092 -0.048756 0.082688 0.034960 -0.008978 0.060990 0.043170 -0.046298 -0.089264 -0.030664 0.006524 0.037022 0.006819 -0.100680 0.123023 -0.001863 -0.003007 -0.082882 0.073058 -0.020796 0.000646 -0.149127 0.059664 0.125358 -0.071959 -0.067550 0.071233 -0.057699 0.032441 0.090397 -0.119041 0.084944 0.106716 0.007556 -0.026169 0.088176 0.045707 0.118372 -0.051086 0.049425 0.015763 -0.063603 -0.096649 0.003389 -0.093845 -0.113268 -0.066715 -0.006386 0.010732 0.011528 -0.009186 0.014730 0.004146 -0.034962 -0.052006 0.076780 0.088883 0.000159 -0.027545 -0.107452 -0.056167 0.055877 0.024075 -0.012905 -0.058463 -0.058063 0.017042 0.050814 0.046273 0.057540 -0.003665 -0.089234 0.133265 -0.016195 -0.066951 -0.062016 -0.003219 -0.081750 0.014369 0.139168 0.010273 -0.069449 -0.042220 -0.087130 -0.053653 0.063425 -0.030253 0.034868 0.156332 0.050565 0.037849 0.012751 0.009985 -0.047528 -0.064767 -0.013008 -0.071755 0.024397 -0.009068 0.212831 0.027919 0.103013 -0.009699 -0.058248 0.002580 -0.185518 0.036241 0.051030 -0.001032 -0.128750 -0.007136 -0.116766 0.070368 -0.031563 -0.070013 -0.003438 -0.073395 0.125790 -0.105858 -0.031709 -0.031644 -0.017700 0.043678 0.118906 0.000752 -0.080171 -0.007764 0.140497 -0.017105 -0.002459 -0.026302 0.051338 -0.053580 -0.023046 0.106908 -0.010726 0.036691 -0.002920 -0.042694 0.049636 0.000558 0.033034 -0.045834 0.143046 -0.049842 0.006505 -0.043881 -0.069390 -0.022766 0.016358 0.008569 -0.011854 -0.041507 0.079742 -0.013155 0.093067 0.082383 0.139623 -0.019778 0.069010 0.084688 -0.021887 -0.003764 0.077180 -0.132529 -0.054475 0.099335 0.058341 -0.020913 0.004067 -0.037339 -0.063105 -0.007499 0.022671 0.002769 -0.101824 0.102845 0.007363 -0.142694 0.084337 0.022529 -0.080155 -0.099942 -0.003699 0.000291 -0.035632 -0.049875 -0.032026 -0.020602 -0.116079 -0.012822 0.007946 0.001994 0.021809 0.036420 -0.030923 -0.044276 0.027801 0.038694 -0.048037 -0.106078 -0.047529 0.040952 0.085650 0.054850 0.096914 0.012413 -0.033261 -0.104337 -0.050214 0.089754 -0.032456 0.104031 0.105159 -0.054371 -0.024515 -0.087026 -0.073306 0.014466 0.012659 -0.062474 -0.073281 -0.000624 0.138619 -0.073124 0.036062 -0.005870 0.048262 -0.004104 0.112974 -0.048083 0.083146 0.009103 0.013861 0.072954 -0.049498 -0.016213 0.028753 0.003446 0.080911 -0.063630 -0.075452 0.018409 0.072478 0.025031 0.013801 0.057735 0.064944 -0.129308 -0.002420 -0.004257 0.015241 -0.100662 -0.056706 -0.033702 -0.022616 -0.009364 0.058291 -0.065551 -0.022486 0.114368 -0.022055 0.051325 0.050400 0.000727 -0.013802 0.020681 0.013345 0.066393 0.179420 -0.044413 -0.033054 0.065522 0.034527 -0.030048 -0.021366 -0.100608 0.099520 0.035637 -0.033216 -0.033042 -0.034200 0.073064 0.006058 0.001883 0.038348 -0.023059 -0.031046 -0.043041 0.092472 -0.007355 0.056957 -0.093288 0.101969 0.054216 0.081805 0.072614 -0.019710 -0.029053 0.054134 0.038045 -0.015418 -0.124129 0.024644 -0.085933 0.017667 -0.019695 0.082088 0.045329 0.038889 -0.126818 0.002465 0.102518 0.027847 0.059023 -0.060001 -0.015928 -0.006703 -0.033822 -0.060583 -0.060787 0.067872 0.000076 0.108629 -0.041894 -0.018089 0.147513 0.021845 0.045761 -0.013048 0.011339 -0.049215 0.095934 -0.105649 -0.088199 0.059790 0.000932 -0.084363 0.038916 -0.057612 0.049672 0.017117 -0.031909 0.109786 -0.022931 -0.069983 0.062229 0.102816 0.035466 -0.087477 -0.058680 -0.048265 -0.072248 0.035621 0.100483 -0.033104 0.075369 0.027849 -0.125744 -0.046808 -0.022911 -0.070264 -0.076913 -0.135881 0.074789 0.077169 -0.098189 0.064242 0.042737 -0.041481 0.038536 -0.004614 0.106471 0.013083 0.002206 0.008522 0.101434 0.045576 0.152395 0.026840 -0.005901 -0.102382 -0.098312 0.017829 0.041004 0.029774 -0.002968 0.109831 -0.001988 -0.054161 -0.030903 0.003067 -0.057110 0.050079 -0.066550 0.074893 -0.073372 -0.044050 0.053467 -0.122713 0.036233 0.063545 0.096506 -0.073966 -0.052130 -0.077533 0.023000 -0.001016 -0.022902 -0.116231 -0.064291 -0.079731 -0.026435 -0.017919 -0.011338 0.101840 -0.062909 0.052024 0.106835 -0.061015 0.052839 0.027094 0.067225 -0.019224 0.023404 -0.057750 0.096042 -0.163349 0.010056 0.117861 -0.015174 -0.144456 -0.005462 -0.073452 0.003710 -0.152274 -0.033587 -0.018406 0.124692 -0.072500 -0.044191 -0.024131 -0.033583 0.060971 0.071266 -0.049956 -0.041799 0.094990 -0.021745 0.025348 -0.054417 0.001689 0.031006 0.145087 -0.056356 -0.028697 -0.011029 0.080798 0.035212 -0.024022 -0.129887 0.019758 -0.027997 -0.112327 0.071021 -0.005980 -0.037595 0.060354 -0.001066 -0.110026 0.045188 -0.050718 -0.040440 -0.004790 0.000571 0.047404 0.097752 0.105670 0.024400 -0.056367 0.037011 -0.108661 0.027239 0.042493 -0.017906 0.002029 -0.123119 -0.192509 0.046764 -0.096572 -0.051855 0.096554 -0.011841 0.014586 0.019900 0.057721 -0.009989 -0.101353 0.077546 0.057356
user 0.025390 -0.006732 0.123872 -0.004852 0.264523 -0.077427 -0.145138 -0.153679 0.032070 -0.009629 0.110455 -0.152075 -0.050835 0.025267 0.195661 -0.046023 0.016929 0.006024 0.088568 0.064848 0.016182 0.068489 -0.022360 0.067972 -0.044648 0.009127 0.069210 -0.141367 0.086099 0.074970 0.036679 0.021147 0.135996 0.070340 0.100233 0.087457 0.047664 -0.071782 0.023937 -0.090955 0.094299 -0.133462 0.145140 -0.011689 0.084107 -0.093223 0.145366 -0.013179 0.044232 0.110353 0.009411 -0.049248 -0.095546 -0.090849 0.164080 -0.046071 -0.091696 0.029561 0.025768 0.039663 0.051285 -0.014469 -0.037382 -0.043997 0.074409 0.072879 0.098949 -0.063750 -0.047544 0.079855 -0.161046 -0.030065 -0.005396 -0.032080 0.067277 -0.050752 0.111787 0.115994 -0.068007 -0.140820 -0.021759 -0.010292 -0.038563 -0.089968 -0.068029 -0.168144 -0.102140 0.087617 0.043582 -0.000876 0.035938 0.105993 -0.045777 0.039380 0.046187 -0.058942 -0.030716 0.060648 -0.017787 0.170365 -0.027094 0.097308 0.000743 0.016018 0.106513 0.070806 -0.011064 -0.061724 -0.052605 -0.004362 0.036810 -0.068488 -0.111962 0.024758 0.036858 0.057521 -0.070667 0.042732 0.040465 0.084927 -0.199306 0.049648 0.124630 0.135967 0.011223 -0.071079 -0.108827 0.138542 -0.081493 -0.134438 0.075358 -0.142537 0.109476 -0.139740 -0.031115 0.013595 -0.030055 -0.127650 0.076965 0.023820 0.050047 0.046235 -0.069898 -0.004814 -0.054714 -0.000912 -0.156627 0.037177 -0.049341 -0.121084 0.148848 -0.003171 0.002519 0.071044 0.012013 -0.008457 -0.001125 -0.045066 0.065372 -0.076380 0.012651 -0.092717 0.009876 0.024559 -0.026300 0.058759 -0.022331 -0.018052 0.147192 -0.015220 0.184544 -0.030079 -0.056923 0.007955 -0.030092 -0.012744 -0.013106 -0.016326 0.085303 0.018609 -0.094618 0.033313 -0.237057 0.126410 0.048345 -0.019631 -0.007115 0.132752 0.008084 0.122666 -0.061245 0.000309 -0.049843 -0.061746 -0.110443 0.071370 -0.001280 -0.051198 0.120896 -0.003174 0.017115 0.126443 -0.086365 -0.045559 -0.003264 0.193710 -0.046147 -0.074475 -0.102172 0.000683 0.057308 -0.070151 0.074727 -0.063278 0.057839 -0.166954 -0.008929 0.037130 -0.052332 0.056570 -0.104462 -0.088368 0.001081 -0.054553 -0.059358 0.010955 0.007718 0.074278 0.089337 0.040181 0.003453 -0.066638 -0.040924 -0.084143 -0.049595 -0.021394 -0.164977 -0.009036 0.050921 0.007795 0.003452 0.038809 -0.026790 -0.081660 0.042777 0.043922 0.107973 0.073956 -0.015806 -0.150948 -0.031186 0.024770 0.004480 -0.133855 0.009984 0.029255 -0.009810 0.025202 -0.125936 0.029050 -0.008572 0.000901 0.045303 0.076078 0.039505 -0.003263 0.092665 0.028898 0.040563 -0.046357 -0.083848 0.074811 -0.028327 0.060659 0.067941 -0.023369 0.110757 0.020540 -0.109592 -0.047745 -0.037034 -0.021553 0.077189 0.001793 -0.061573 0.034636 0.027812 -0.010809 -0.030321 0.068021 0.044512 0.001997 -0.009043 -0.001337 0.283865 0.010102 -0.064541 0.058608 -0.155194 -0.053330 -0.044568 -0.056706 -0.030746 -0.013882 -0.154555 0.011125 0.036518 -0.021353 -0.026328 -0.007228 0.113720 0.052159 -0.041195 -0.050899 -0.043430 0.059669 0.095433 0.095052 0.133746 0.008211 0.103962 -0.082528 0.180099 -0.155453 -0.052063 0.037675 0.064249 -0.007493 -0.041825 -0.078430 -0.114147 -0.018105 0.087736 -0.186283 -0.079183 -0.092270 -0.007987 -0.091148 -0.101194 -0.038664 -0.088636 0.019981 0.083545 0.070686 0.039543 -0.017327 0.044581 0.058253 0.025604 -0.062755 -0.094612 -0.023222 -0.071510 -0.095792 -0.042015 -0.175365 0.047959 -0.056308 -0.034192 0.100994 0.004692 0.033125 0.016015 -0.040152 -0.117611 0.165596 0.006518 0.102485 -0.040012 -0.085655 0.027823 0.014578 0.068798 -0.109140 0.110834 -0.136501 0.104464 0.053446 0.011873 -0.095329 0.034833 0.036808 -0.190127 -0.173028 -0.014677 -0.011136 -0.020946 0.040942 -0.017331 -0.114967 0.075546 -0.034559 0.100909 0.060429 -0.102475 -0.026133 0.054859 -0.121742 0.123422 0.037762 0.064818 0.022963 0.093140 0.038833 -0.046762 0.010406 0.076267 -0.177060 0.046000 0.034684 0.040225 0.027702 0.153707 0.033210 0.037336 -0.051829 0.173357 0.011135 0.059953 -0.014700 -0.099552 0.125812 0.042461 0.029253 -0.028969 -0.045541 -0.004574 0.021350 0.133317 0.028637 0.117572 -0.030968 0.021297 0.025659 -0.092704 -0.147984 -0.005727 0.003976 -0.003533 0.028230 -0.126619 0.040291 -0.106026 0.097387 -0.011190 -0.079425 -0.026979 -0.096115 -0.033002 0.041583 -0.022202 -0.136958 0.021413 0.049919 0.020716 0.122521 -0.135961 -0.033681 -0.050739 -0.004157 0.006629 -0.131391 -0.090438 0.021413 -0.073599 -0.072540 0.060915 0.166675 0.091929 -0.061104 -0.092993 -0.043351 -0.036964 0.100932 0.102025 -0.082338 0.056839 -0.010924 0.092873 -0.036646 0.059170 0.071658 -0.005646 -0.038926 -0.265248 0.179607 0.050694 -0.147712 0.056183 -0.039078 0.032942 0.165608 -0.069609 0.020344 0.072491 0.163754 0.062097 0.110230 0.063042 -0.030130
i -0.061424 -0.037913 0.180941 -0.034704 0.032746 0.012161 0.042825 0.063693 0.030241 -0.101042 0.161152 -0.236600 0.042124 0.008014 -0.025639 0.016023 0.061010 0.016281 0.014489 0.059245 -0.101573 -0.169648 0.200512 -0.095774 -0.147360 0.025745 -0.015492 -0.021345 0.063532 -0.072541 0.016031 0.028095 -0.094745 0.245570 0.149856 0.121968 0.079616 -0.000887 -0.094209 0.032801 -0.036963 -0.159896 0.036445 0.073812 0.064091 -0.065599 0.008247 -0.027653 -0.011170 0.064525 0.018968 0.120010 -0.043849 -0.018047 -0.055043 0.071710 0.018492 0.108479 -0.020783 0.053905 -0.049191 0.041492 -0.027151 -0.113262 0.000136 0.045992 0.013298 -0.065845 -0.125157 -0.171332 -0.002447 -0.102377 -0.013520 -0.161413 0.056876 -0.080887 0.026349 0.135627 0.079608 -0.015942 0.092603 -0.055547 0.099510 -0.015206 -0.026507 0.008241 -0.077010 -0.004403 0.064235 0.024078 0.106689 -0.027336 0.000859 -0.008040 -0.045848 -0.005482 0.099844 0.019814 -0.014448 0.033054 0.022585 -0.062868 -0.019214 0.104117 0.060497 -0.095735 -0.028451 -0.009707 0.033116 -0.095500 -0.058621 -0.026512 0.071971 -0.018760 0.066453 0.067887 -0.232654 0.191034 0.008162 -0.011893 -0.142380 0.064833 0.041662 0.047027 -0.039922 0.004050 -0.043978 0.085597 -0.178369 0.090342 -0.044896 0.031103 0.002749 -0.106327 -0.044852 -0.004560 -0.095382 -0.060649 0.064611 0.044687 -0.059086 -0.034791 -0.018116 -0.023589 -0.044419 0.060391 -0.011987 -0.006726 -0.142619 0.022193 -0.005002 -0.051842 -0.035278 0.036979 0.051382 -0.152955 0.144870 -0.054669 -0.023183 0.114183 0.095305 -0.006676 -0.067447 -0.046194 -0.083463 -0.043787 0.016498 -0.019358 0.060960 0.096227 -0.031726 0.016627 -0.108336 0.036148 0.010367 -0.057352 0.005688 0.074150 -0.004542 0.004401 -0.031605 -0.011979 -0.068035 0.017100 0.023539 -0.135214 -0.051539 0.096947 -0.022413 -0.051105 0.030008 0.034931 -0.054082 -0.006025 -0.015402 -0.002962 -0.016282 -0.082058 0.167070 -0.201612 -0.042187 -0.135918 -0.096885 0.040785 -0.061865 0.057009 -0.040381 -0.072334 0.037201 -0.094381 -0.065195 0.107318 0.049304 -0.004120 0.054447 -0.106641 -0.030762 0.000109 0.013335 0.070374 0.081857 0.014855 -0.016726 -0.001234 0.052748 -0.086031 0.069431 -0.014442 -0.059664 0.339436 -0.045221 0.165153 -0.072601 -0.023881 -0.002029 -0.184815 -0.033340 0.019795 0.131994 0.077000 0.018941 -0.053135 -0.019509 0.007315 0.062987 -0.005486 0.060010 0.156643 -0.023571 0.078085 -0.042864 0.054342 0.092739 0.031499 0.111397 0.023249 -0.035066 0.059805 0.054309 -0.053237 0.058381 -0.008908 -0.094322 -0.083635 -0.055430 -0.076130 -0.107504 -0.013111 0.083439 -0.035349 -0.029586 0.004427 -0.058018 0.084341 0.041277 0.011727 0.001063 -0.063090 0.019944 0.074277 0.047317 -0.089708 0.010683 -0.067488 -0.016396 0.106142 -0.176249 -0.054096 -0.021670 -0.066900 0.098245 0.079166 -0.046170 0.084740 0.147439 0.051881 -0.007916 -0.012126 -0.100170 0.077393 -0.038778 -0.026918 0.053506 -0.053539 -0.098254 -0.103838 0.008987 0.017564 0.027189 -0.079295 -0.127883 -0.057654 -0.102158 -0.057357 0.094272 0.016025 0.172562 -0.037135 -0.004198 -0.098435 -0.073369 0.192907 0.090331 -0.002838 0.066129 0.067080 -0.048969 0.023631 -0.036317 0.036081 0.046691 0.006058 0.058389 -0.007533 -0.027565 0.049026 0.072663 0.037513 0.057170 -0.005380 0.123304 0.028861 0.061928 -0.026417 -0.026673 0.120994 0.068752 0.062544 -0.023629 -0.027365 0.036369 -0.066237 0.032055 -0.020329 -0.024848 0.034886 -0.040886 0.127039 -0.045565 -0.033290 -0.013072 -0.092214 -0.036106 -0.036349 0.164770 0.089674 -0.132407 -0.041905 -0.060164 0.087234 0.041994 -0.016655 0.011670 -0.059660 -0.034529 -0.125938 0.060581 -0.048428 0.088602 -0.052598 -0.062535 0.049856 0.037257 -0.055168 0.029220 0.046262 -0.043395 0.065934 -0.064420 -0.142654 -0.029031 -0.052186 -0.027418 -0.100777 -0.022495 0.055600 -0.060498 -0.024862 0.076326 0.071054 -0.065034 -0.091410 -0.047726 -0.157140 0.025254 -0.057912 0.006825 0.077867 -0.039232 -0.087613 -0.157058 0.073883 -0.038702 0.113990 0.103911 0.041177 -0.011873 0.002710 0.039074 0.042978 0.014583 0.133133 0.112582 -0.037250 0.034473 -0.000874 -0.017925 0.009313 0.087069 0.011799 -0.212417 -0.017795 0.092218 0.002254 -0.066129 -0.090252 -0.007997 -0.014734 0.020887 -0.085379 0.086585 0.135705 0.121007 -0.143468 -0.050452 0.014501 0.013561 0.098359 -0.118385 -0.007104 -0.017778 -0.089626 0.011153 0.016212 0.002257 0.058052 0.047094 -0.071122 -0.164968 0.068784 0.093192 0.242595 -0.025821 0.067282 0.006894 0.049542 0.064433 -0.205190 0.213667 0.083433 -0.195985 -0.046488 -0.044909 0.093743 -0.110447 -0.090895 0.104554 -0.005097 -0.029248 -0.051712 0.081293 -0.224811 -0.069223 -0.017233 -0.040933 -0.114339 -0.150008 -0.046596 -0.059373 0.030821 0.093173 0.129925 -0.023308 -0.176869 -0.069450 0.181863 -0.068313 0.003061 0.081968 0.024677
! 0.001179 -0.041633 0.030564 -0.016500 -0.128759 -0.020806 0.062135 0.035262 0.038038 -0.006124 0.000840 -0.075062 0.089717 -0.081833 0.052236 -0.117580 -0.002989 -0.146829 0.004444 0.009810 -0.008739 -0.160471 0.124599 -0.051303 0.117613 -0.069721 -0.069778 -0.065339 0.067077 -0.015186 -0.093988 0.066245 -0.005117 0.034682 -0.031468 0.133125 0.024903 0.055426 -0.013161 -0.061704 0.093326 -0.166708 -0.066001 0.019136 -0.034357 -0.073929 -0.006603 0.012465 -0.068535 -0.021314 -0.015156 0.151905 0.061654 -0.008043 0.037595 0.043750 -0.030389 0.106455 -0.037178 0.045707 0.047838 -0.020774 -0.016849 -0.017761 -0.194277 -0.060899 0.005063 0.053054 0.048047 0.040705 0.017697 -0.073157 0.074054 -0.186878 -0.056701 -0.010284 -0.095979 -0.058010 -0.026135 -0.041126 -0.002248 -0.009162 -0.077761 0.097830 0.072715 -0.008918 0.069675 -0.010899 0.119324 0.062924 0.017044 0.079503 0.021164 0.043844 -0.030088 0.066811 -0.155315 -0.054500 0.019220 0.103328 -0.061737 0.084071 -0.147725 0.049201 -0.239243 0.091400 0.116205 -0.038205 -0.077252 0.018395 -0.046087 0.034985 0.073341 0.061620 0.022374 0.029591 0.039148 0.101857 -0.146916 -0.083770 -0.066757 0.007035 -0.004548 0.066184 -0.070051 -0.070159 -0.039307 0.081440 -0.008087 -0.041001 -0.027963 -0.038344 -0.041098 -0.135913 -0.074902 0.133894 -0.042600 0.008717 0.003955 -0.017962 0.155716 -0.048718 -0.148737 0.065283 -0.140538 -0.026144 -0.062771 -0.091955 -0.079655 0.042251 -0.020680 0.091152 0.160858 0.138227 -0.033480 0.002662 0.031027 0.000974 0.019726 -0.005469 0.016123 -0.102761 -0.027243 0.023099 0.046198 0.071552 0.020254 0.054739 -0.100364 0.084790 0.042680 -0.020589 -0.118464 0.004256 -0.023333 -0.096733 0.075016 -0.004660 0.057180 0.014161 -0.058192 0.082300 -0.067601 0.044885 0.162795 -0.023360 0.018805 0.041069 -0.014190 -0.086308 0.023561 -0.051954 0.018357 -0.055773 -0.044492 -0.109012 -0.057499 0.014336 -0.026397 0.015981 -0.028602 -0.059205 -0.015219 0.172532 0.059968 0.015802 -0.049627 -0.143368 -0.090510 0.011982 0.133732 -0.116707 -0.058735 0.005641 -0.063873 0.002352 -0.067337 -0.066608 0.041468 0.110853 -0.087256 -0.061596 -0.016082 -0.015296 -0.052056 -0.012082 -0.098587 0.105977 0.023095 0.126089 0.018384 0.109064 -0.024911 0.027336 0.026480 0.072098 -0.031562 0.004153 0.024984 -0.075424 -0.037482 -0.108785 0.056632 -0.151933 0.110889 0.147609 -0.110258 -0.007830 -0.074588 -0.020819 0.005308 0.025371 -0.073961 -0.057068 -0.049684 0.032899 -0.059211 0.086981 -0.074630 -0.081334 0.008969 -0.013549 0.007496 0.048711 -0.046183 0.018595 0.076280 0.067913 0.043465 0.042307 -0.177592 -0.025403 0.018131 0.009108 -0.041127 0.053504 -0.047626 0.073338 -0.058303 -0.128871 0.014081 0.029899 -0.024282 0.040965 -0.026049 0.119653 -0.134855 -0.059283 -0.088310 0.104118 -0.039755 -0.083327 0.025211 0.167185 0.126846 0.101497 -0.172091 0.048096 -0.113628 -0.049946 0.132377 0.106082 0.028133 0.093949 -0.028087 -0.024554 0.022730 0.115580 0.094176 0.042701 0.031852 0.046541 0.018987 -0.069529 -0.026021 0.109286 0.047211 0.056388 -0.033844 0.037440 0.083944 0.119648 -0.026610 0.045305 -0.084707 0.165520 0.079600 -0.077658 -0.046992 -0.076766 0.026141 -0.127317 0.046972 -0.042159 0.000653 0.021046 -0.009604 0.033277 0.007146 -0.118028 -0.063485 -0.066387 0.005233 -0.024466 -0.054764 -0.033767 0.036114 -0.065796 -0.195781 0.052230 -0.037068 -0.032137 -0.009168 0.037961 0.041392 0.009756 -0.026352 -0.031823 0.004651 -0.046744 -0.046571 -0.022866 0.016850 -0.075211 0.064126 0.081844 0.035154 0.171648 0.047543 0.059613 -0.092759 -0.026711 0.076668 0.062079 0.060180 0.019923 0.110871 0.055116 0.089827 -0.112903 0.014935 -0.140299 0.019749 -0.088093 -0.115195 0.022948 -0.127567 0.047669 0.136740 -0.080646 -0.044370 0.088594 -0.017343 0.166220 -0.025286 -0.067389 0.017226 -0.052379 0.115506 0.028863 -0.008389 0.041440 0.092438 0.061524 -0.035817 -0.042582 0.076726 -0.046992 -0.035813 0.004605 0.094041 -0.083069 0.105674 -0.021413 -0.068465 -0.107677 -0.020844 0.076350 0.045095 -0.061012 -0.044072 0.000910 0.101249 -0.065663 0.011580 -0.069260 0.206704 0.014736 0.039578 0.061518 -0.097296 0.047117 -0.024988 -0.029270 -0.127979 0.021679 0.054352 -0.118089 -0.049033 -0.091570 -0.026970 -0.080885 -0.021879 -0.012510 0.058901 -0.013928 -0.164013 0.013543 -0.113447 0.011134 -0.065813 0.007026 0.015065 0.126998 -0.102019 0.076271 -0.094361 -0.103119 -0.001790 -0.028668 -0.009788 -0.030051 -0.018543 0.106493 0.041138 0.010043 0.024067 0.141395 -0.005139 -0.045035 -0.110171 0.042791 0.016410 -0.041019 0.058747 -0.175767 0.034697 -0.000210 -0.088128 -0.019871 -0.009882 -0.012725 0.001591 -0.061142 -0.089411 0.020066 0.041624 -0.058311 0.067616 0.007306 -0.014930 0.109347 -0.007957 0.056660 -0.056405 0.123139 0.048490 0.116383 0.071756 0.092244
to 0.080043 -0.213082 -0.012314 0.065628 0.144607 0.049602 0.089343 0.018956 0.026793 -0.144529 0.080201 -0.115684 -0.054104 -0.025411 -0.017743 0.034452 -0.005333 -0.159263 -0.187468 0.152621 -0.196294 0.019507 0.090688 -0.036730 0.008736 0.023747 -0.053246 0.087829 0.214265 0.161483 -0.081656 0.088239 0.021336 0.096322 0.134670 0.099685 -0.060984 0.018028 0.043712 -0.002468 0.022952 -0.133716 0.030784 0.099499 -0.056852 -0.000792 0.006170 -0.142030 0.034020 0.071164 0.009896 0.064883 -0.062498 -0.020025 -0.157346 0.015032 -0.071277 0.157182 -0.011190 0.123388 0.111576 -0.032532 -0.150389 0.098697 -0.048849 -0.003264 -0.068832 -0.031842 0.008320 0.107834 -0.112299 0.091165 0.074305 -0.070995 -0.200538 0.022015 -0.085426 0.022213 -0.095628 -0.065818 -0.032913 -0.046978 -0.061569 0.137406 -0.110977 -0.032919 -0.072308 -0.011585 0.084335 0.073887 0.067257 0.062684 -0.050065 0.158179 0.127322 -0.078769 -0.047813 -0.031951 0.065754 0.005103 0.013464 0.054380 0.009200 -0.078270 0.044234 0.070512 -0.060972 -0.017096 0.016418 -0.070760 -0.019600 0.032596 -0.012135 -0.075527 -0.003526 -0.044393 -0.072268 0.124233 -0.074927 0.063147 0.062817 -0.008873 0.029167 0.037786 0.021225 0.001988 0.091023 0.022268 -0.116420 0.083802 -0.007647 -0.062040 0.052100 -0.190193 0.074552 -0.015003 -0.009573 -0.099806 0.038059 0.033720 -0.124980 0.021061 -0.053943 -0.019311 -0.048615 0.040234 0.071009 -0.082803 0.030491 0.015654 0.060877 -0.039235 0.111018 0.010967 0.026291 0.004170 0.027634 0.054790 0.090759 -0.073580 0.057056 0.038017 -0.039795 -0.063588 0.026161 -0.036772 -0.121211 0.105731 0.035513 0.037144 0.023017 0.027318 -0.114742 0.022708 -0.031625 -0.033676 -0.108946 -0.025904 0.016595 0.080384 -0.093936 -0.031061 0.042378 -0.011062 0.045691 -0.074836 0.004577 -0.003565 -0.016236 0.066721 -0.151160 0.116869 -0.055841 0.031056 -0.069544 0.089680 0.014554 0.216444 -0.034569 -0.056469 -0.056570 0.002531 0.063189 -0.074349 -0.067595 0.038286 0.073400 0.081240 0.046134 -0.003133 0.040686 0.011550 -0.031612 -0.027001 -0.031127 0.071565 0.010311 -0.109857 -0.053052 0.038033 -0.074048 -0.007193 -0.005876 0.082963 0.015297 0.012819 -0.131243 -0.063617 -0.071068 -0.096421 0.224033 0.025370 -0.059081 0.124247 0.134662 -0.001018 -0.030473 -0.022063 0.030748 -0.044754 0.002792 0.036461 0.100700 -0.041159 -0.065449 -0.075353 0.089804 0.153617 0.089164 -0.074753 0.109160 0.091623 -0.108157 -0.086664 -0.074236 0.009119 0.026749 -0.011324 -0.095099 -0.035335 0.026510 -0.028921 0.058149 -0.048486 -0.032254 0.014271 0.033802 0.025685 0.018408 -0.023102 -0.023406 -0.141391 -0.144885 0.060589 -0.028900 -0.018038 -0.117200 -0.089426 -0.081694 -0.030760 0.064106 0.032486 0.120607 -0.075026 0.140148 0.198990 -0.018506 0.012094 0.031332 -0.047294 0.021500 -0.055931 -0.152590 0.009564 0.023306 -0.103909 0.123933 -0.126625 -0.021705 0.084348 -0.090558 0.058356 0.030762 0.000261 0.054656 0.051340 -0.034946 0.014234 0.011940 -0.039080 -0.094968 -0.033926 0.007238 0.032187 0.094413 0.081318 -0.021022 0.170448 -0.022178 -0.093073 -0.016831 0.140487 -0.047342 0.035576 -0.039766 -0.111350 0.086729 0.173793 -0.016046 -0.058205 0.101392 0.054081 -0.090642 -0.102102 -0.044756 0.135409 -0.031983 0.046654 0.118824 0.072206 -0.065543 0.001523 0.081911 -0.016249 0.021280 -0.002338 -0.081533 0.185776 -0.113186 -0.122594 0.157272 -0.102348 -0.115921 0.074980 -0.129623 0.096134 -0.007111 -0.145808 -0.102715 -0.113876 0.008086 -0.011954 0.045126 -0.023978 0.109320 -0.034041 0.000050 0.011543 0.115382 0.138040 0.005243 -0.092574 -0.078236 -0.129140 0.105210 -0.078971 -0.042065 0.121266 0.005573 -0.167839 0.089393 -0.214740 -0.007576 -0.077263 -0.011681 0.109982 -0.061312 0.060754 0.047233 0.033571 -0.029251 0.039189 0.158809 -0.001964 -0.082173 -0.062153 0.009734 0.079614 0.013284 0.071510 0.062658 0.215342 0.098592 0.053530 -0.137456 -0.157339 -0.024115 0.033279 -0.028701 -0.020922 0.115718 0.035923 -0.044254 -0.108034 -0.050106 0.038918 -0.092179 0.042074 0.158889 -0.116757 -0.043076 0.000238 0.109106 0.008891 -0.002109 0.074065 -0.126571 0.030978 0.104348 0.023154 0.042950 -0.239664 -0.051757 -0.051140 -0.026002 -0.090237 -0.001283 -0.114234 -0.020189 -0.068889 -0.014089 0.028079 0.086114 0.033234 0.068068 -0.016094 -0.113510 -0.081271 0.068600 0.025250 -0.015107 0.070379 0.057439 -0.050376 0.108525 -0.066371 -0.017814 0.032182 0.017333 0.071301 -0.119260 0.081814 0.016226 0.100085 0.059619 -0.003998 -0.060361 -0.096008 0.055572 0.080354 -0.035869 0.029503 -0.147390 0.005185 -0.033785 0.017041 -0.114297 0.060536 -0.013006 -0.010128 0.079888 -0.114416 -0.158888 0.153854 0.042136 0.064924 -0.117866 0.113942 0.062555 -0.091014 -0.185673 0.090095 0.026389 -0.178006 0.045882 0.074757 -0.058981 -0.158013 0.055799 -0.007564
the 0.035734 -0.052633 -0.099868 -0.073781 0.064550 0.055151 0.013002 0.110264 -0.141157 -0.070811 0.007748 -0.039767 -0.128714 0.132425 -0.073572 -0.087427 -0.016698 -0.076435 -0.265015 0.097917 0.004998 -0.137247 -0.013733 0.037244 0.038593 -0.017218 0.122245 0.027658 0.051428 -0.149561 0.014323 -0.188702 -0.100597 -0.042942 0.039269 0.043264 -0.126475 -0.032335 0.017927 -0.168332 -0.091520 0.092657 -0.093820 -0.052014 -0.038688 -0.004178 0.001216 0.179294 0.072867 -0.113987 -0.108643 -0.102313 -0.079606 0.156428 -0.036064 -0.070275 0.076793 -0.047832 0.001154 -0.014701 0.101444 0.084024 0.018316 -0.038169 -0.027720 0.017600 0.047803 0.143922 0.008103 0.029338 -0.087325 0.214119 -0.105484 0.169077 0.024223 0.005643 0.054853 0.002729 -0.043604 -0.035551 0.027205 -0.004283 0.096510 -0.113278 0.065275 0.045900 0.048161 -0.109991 0.039161 0.124999 -0.105802 0.045222 0.024959 0.041818 0.032928 -0.047878 -0.020640 0.017348 -0.038488 -0.048774 -0.026606 -0.084903 -0.008067 -0.054599 -0.017919 -0.139704 0.003640 -0.031896 -0.088686 -0.031738 0.006260 -0.033346 -0.001374 0.029990 0.122018 0.004879 0.088039 0.016044 0.017669 0.138506 0.025280 -0.073209 -0.112735 0.065781 -0.149603 0.084591 0.046942 -0.204701 -0.001888 -0.013358 0.139848 -0.104850 0.029715 0.218409 0.044694 -0.034829 0.141073 -0.096134 0.066157 -0.026851 -0.037990 0.061616 0.198097 0.135874 -0.048012 0.111131 0.042793 0.136151 0.047933 0.111721 0.205529 0.203591 0.034940 -0.100647 -0.109261 0.015483 0.059857 -0.098165 0.026862 -0.010887 0.016457 0.052659 -0.029426 0.044903 -0.111677 0.148000 -0.075143 0.022074 0.029173 0.145171 -0.018960 0.041176 -0.023826 0.078277 0.025342 0.030687 0.097629 0.020304 -0.163708 0.052302 0.095518 -0.175228 0.019299 -0.014190 -0.133518 0.115824 -0.089074 -0.032278 0.017026 -0.175989 0.098532 0.071303 -0.185796 -0.085892 0.058934 0.000702 0.009206 -0.006265 0.061995 -0.005022 0.009922 -0.064772 0.122741 -0.035227 0.029376 0.040966 -0.009774 -0.062352 -0.022045 -0.050102 0.163199 -0.058782 0.093833 0.076316 0.041808 -0.078642 -0.044367 0.104983 0.053929 -0.000397 -0.041629 -0.020930 -0.055940 -0.031511 0.072273 -0.062945 -0.108895 -0.019049 -0.024977 -0.052190 0.075898 0.059469 -0.017423 0.051875 0.025115 -0.045559 -0.028681 0.032320 -0.074040 0.030428 0.003179 -0.152806 0.001771 -0.154683 0.005945 0.074361 0.054957 0.054794 0.030858 0.058660 0.117694 -0.021886 0.072859 -0.003856 -0.112580 -0.032865 0.080077 0.003124 0.013508 0.000396 0.001719 0.008872 0.117987 -0.069182 -0.079446 0.045371 -0.063483 0.023513 -0.001643 0.027215 -0.041661 -0.058457 -0.081556 -0.000191 -0.007812 -0.056425 0.048681 0.013057 0.016288 0.068598 0.027949 -0.047022 0.176882 -0.086702 0.076955 -0.027519 -0.019338 -0.120591 -0.012370 -0.013034 -0.041131 -0.003551 -0.066857 0.117908 0.086511 -0.002653 -0.028045 -0.037030 0.015878 0.040819 0.025822 -0.119274 -0.009258 -0.074176 0.043517 0.045394 -0.002388 0.021427 0.063165 0.086250 -0.041848 0.010251 -0.107359 -0.018013 -0.015465 0.067523 0.020063 0.068952 -0.059733 -0.071085 0.017634 0.000201 -0.104862 0.008843 -0.061685 0.116744 -0.015830 -0.032945 -0.011935 0.041702 -0.071238 -0.076868 0.083037 0.082682 0.041789 -0.038925 0.072753 -0.054346 0.019051 -0.003511 -0.031464 -0.023526 -0.010526 -0.096276 -0.039097 -0.022240 0.086629 0.087164 -0.109784 0.034631 0.077169 -0.034852 -0.069237 0.084630 0.044523 -0.017706 0.041505 0.050477 -0.047275 0.074842 -0.014820 -0.047896 -0.039762 -0.027559 0.062771 -0.049075 -0.216451 0.011086 0.023904 0.003960 0.171273 -0.060068 -0.045529 -0.115886 0.070417 0.087367 -0.022740 0.005688 0.044291 0.042345 -0.017519 -0.111379 -0.068619 -0.058690 -0.061818 -0.030375 -0.079340 0.133786 0.013967 0.119457 -0.004104 0.005789 0.013885 -0.004337 -0.124359 -0.028953 0.020375 0.000102 -0.032543 0.084929 -0.026696 0.121638 0.015000 0.082586 0.025063 -0.013040 -0.057471 0.064108 0.105941 0.036708 0.008523 -0.023190 0.101058 -0.068872 0.047967 0.097088 -0.082508 -0.020877 0.017526 -0.092799 0.071798 0.005648 0.122229 0.090802 -0.031971 0.084489 -0.014523 -0.057963 -0.018502 0.003142 0.009001 -0.015980 -0.017183 0.072420 -0.002661 -0.129471 -0.033961 0.046770 -0.060817 -0.005519 -0.003218 -0.000464 -0.093112 -0.057318 0.049681 -0.026029 -0.128241 -0.118054 0.146938 -0.053004 0.116913 -0.013240 0.097359 -0.169385 0.030928 -0.023119 -0.077926 0.094808 -0.042801 -0.026444 -0.012292 0.019002 0.036469 0.017728 -0.003936 0.105061 0.073050 -0.106539 0.023028 0.052176 -0.084695 0.086339 -0.021303 0.048991 0.043682 0.039022 0.056317 -0.061062 -0.065116 -0.043091 0.098987 -0.023236 -0.066965 0.015839 0.012404 0.056597 0.002435 0.083279 0.036205 -0.067257 0.015231 -0.095003 0.016152 -0.009989 -0.015683 0.002744 -0.054798 0.132557 0.054454 0.090096
, 0.090357 -0.053856 -0.000680 -0.070206 -0.021637 0.025516 -0.033977 -0.032869 -0.042909 -0.113484 -0.037960 0.034018 -0.070758 0.000051 -0.015006 -0.001140 -0.057217 -0.060275 -0.006587 0.024495 -0.028563 -0.141906 0.038423 -0.007506 -0.116042 -0.097653 0.086884 -0.019882 0.162640 0.067093 -0.116913 -0.021975 0.083322 -0.140317 0.072569 0.039141 0.031720 -0.097704 -0.001325 -0.078456 -0.036343 0.012987 -0.190912 0.030720 -0.068585 -0.100406 0.075198 -0.003954 0.171221 -0.101313 0.003352 0.002902 -0.060829 -0.008372 0.040027 0.091119 -0.007458 -0.093551 0.140892 -0.100932 -0.024830 0.019078 0.105998 -0.042527 -0.037685 -0.051057 -0.034029 0.065614 -0.008998 0.027500 0.014948 -0.076264 -0.082667 0.013037 0.066133 0.021470 -0.007521 0.012220 -0.018135 0.035757 0.020603 -0.010192 0.027456 -0.140198 0.069999 -0.168618 -0.052162 0.014197 0.056105 0.056433 0.079176 0.029975 0.064150 0.054622 -0.056254 -0.057674 0.047952 -0.013341 0.013336 0.046445 -0.024404 0.002250 0.007286 0.049403 0.037746 -0.021432 -0.086969 -0.010377 0.015662 0.020518 -0.075477 -0.076250 0.074281 -0.038374 0.081690 -0.022721 -0.066042 0.037998 0.023737 0.176313 -0.073045 0.033251 0.101622 0.036927 0.058720 -0.038440 -0.046290 0.020875 -0.069056 0.052887 0.029311 -0.021828 -0.057780 -0.141538 0.074599 -0.017342 0.021278 -0.056625 0.044656 0.018512 0.064238 0.084663 0.030958 0.077890 -0.033830 0.064806 0.005873 -0.043905 -0.047886 -0.001819 0.138781 -0.037994 0.117523 0.073721 0.153212 -0.054219 -0.023943 0.090332 0.071880 -0.143513 0.023844 -0.075215 -0.016058 -0.012114 -0.093353 -0.112433 0.016847 0.037783 -0.085338 -0.033524 0.103774 0.067704 -0.153714 0.062761 -0.023192 -0.053236 0.057283 -0.061502 -0.051892 0.098954 0.067694 0.003458 0.005158 -0.005258 -0.006263 0.000525 0.026845 0.004342 -0.018392 -0.003466 0.041978 0.066199 -0.050726 0.136677 -0.076012 0.060511 -0.041731 0.080134 -0.003250 -0.039930 -0.007452 -0.012997 0.089962 -0.024483 0.037743 0.092827 0.110420 -0.006061 -0.005495 -0.096165 0.032123 -0.060782 -0.064109 -0.000209 0.047819 -0.034896 -0.052942 0.030006 -0.033350 0.000285 -0.148055 0.020330 -0.077941 0.066045 -0.103727 -0.011548 0.015859 0.056013 0.002157 0.002707 -0.002806 0.017549 0.041543 -0.024242 -0.040283 -0.024433 -0.030090 -0.110286 -0.010910 -0.142347 -0.056418 0.012302 0.010950 -0.006328 0.033254 0.106365 0.103294 0.005439 -0.111653 -0.009879 -0.027226 -0.141820 -0.110070 -0.036042 0.090082 0.108614 -0.063606 -0.015746 0.028072 0.068299 0.021613 -0.026823 -0.035687 -0.007925 0.022284 -0.106693 0.057581 0.069627 0.048698 -0.009001 -0.052910 -0.023650 -0.036924 0.025837 -0.035317 -0.020221 0.200335 0.086006 0.007080 0.046063 -0.071788 0.068495 -0.008451 0.091455 0.008526 -0.069014 -0.072685 -0.059993 -0.087476 -0.087146 0.022402 -0.097296 -0.070508 0.088936 0.154523 -0.035973 0.023601 0.082031 -0.068827 -0.005624 0.020771 0.073778 -0.036446 -0.002757 0.078011 -0.038120 0.053697 -0.095750 -0.083193 -0.011047 0.040868 -0.036395 -0.026168 -0.010144 -0.052799 0.066890 0.048733 0.067626 -0.012552 -0.050515 0.080446 0.052593 0.111946 0.039554 -0.007791 0.131036 -0.079361 0.050087 -0.087335 -0.034969 0.024970 0.026245 -0.042047 -0.096968 0.007280 -0.147254 -0.011169 0.038563 -0.047399 -0.153153 -0.006920 -0.008752 0.040779 0.020448 0.033323 0.076124 -0.069536 0.016895 -0.022890 -0.025943 -0.084570 0.062918 -0.156777 0.051964 0.058187 -0.004351 -0.009699 0.004638 -0.006266 0.092493 -0.041404 0.050584 0.081513 0.025469 0.032525 0.138408 -0.053745 0.027044 0.006900 -0.047773 0.082159 -0.094641 0.077354 -0.103951 -0.006861 0.011872 0.041680 -0.089702 0.045093 0.056392 -0.116555 0.020182 -0.108194 -0.052726 -0.070080 -0.009887 -0.052986 -0.062912 0.075437 -0.028146 0.028469 0.080321 0.014349 0.044700 0.152996 0.110984 -0.049547 -0.080963 0.016780 -0.013357 -0.111116 0.041429 -0.028135 -0.035290 -0.005254 0.041509 -0.052081 0.125904 0.073679 0.012674 -0.016654 -0.006311 0.105606 0.020869 -0.027642 -0.070752 0.054966 0.080025 -0.031967 -0.023342 -0.016552 0.172541 0.126852 -0.132423 -0.023720 -0.069426 -0.035082 0.035554 0.005407 0.029423 0.036261 0.001541 -0.173499 -0.025846 -0.110460 -0.064169 0.045425 -0.013260 0.113456 -0.145706 0.006454 0.070275 0.046478 0.006368 0.017868 -0.016529 0.070900 -0.076371 -0.091606 -0.026593 -0.009029 0.065900 -0.101452 0.012282 -0.055659 -0.028198 -0.060472 -0.054205 0.044950 0.001296 -0.037668 0.001577 -0.134726 -0.051075 -0.060534 -0.007570 0.115756 -0.026445 0.042586 -0.001639 -0.081641 -0.093259 0.000758 -0.025983 0.035251 0.065686 0.001965 0.062616 -0.081611 -0.001947 0.020489 0.053341 0.080214 -0.016599 -0.056033 0.157736 0.076597 -0.061645 0.018912 -0.080724 0.208985 -0.015335 -0.081107 -0.012299 -0.057695 0.019107 0.031292 0.157908 -0.003716 0.075639
repeat 0.009931 -0.087259 -0.115626 0.016461 -0.090384 0.196484 0.085453 0.019945 0.005388 -0.151095 0.109844 -0.064670 0.201908 0.025186 -0.110609 0.005584 -0.130849 -0.031872 0.037452 0.107584 0.026396 0.005651 0.039287 0.105928 0.029424 -0.078323 -0.033215 -0.089959 -0.079422 -0.061721 -0.092797 -0.045370 0.126056 0.130505 0.053217 -0.082309 -0.099749 -0.024200 -0.051566 0.138819 0.067019 -0.017289 0.054593 0.035676 0.030253 0.025822 0.072332 -0.062546 -0.043514 -0.049437 0.075114 0.119042 -0.076049 -0.008204 0.034329 -0.113949 -0.097996 0.013902 -0.045524 0.044796 -0.031580 -0.002177 0.030092 -0.062463 -0.055593 0.065647 0.200303 -0.079915 -0.119848 0.130457 0.047307 -0.022460 -0.001946 0.070586 0.092533 -0.015342 -0.075091 0.114344 -0.071387 -0.071979 0.046091 0.024914 -0.093925 0.095057 -0.038556 -0.057612 0.034466 -0.010694 0.065271 0.018863 0.002414 -0.019551 0.137364 -0.057269 0.036377 0.066902 -0.075366 0.075756 -0.132541 -0.014527 -0.108849 -0.062392 0.102309 0.028255 -0.160860 0.055155 -0.034349 0.036782 0.093590 -0.003491 0.094639 -0.085435 0.137793 -0.087561 -0.050796 0.147686 -0.051411 0.079690 -0.063137 0.165620 -0.008682 0.064410 0.061008 0.074523 -0.034387 -0.023264 0.034186 0.058354 0.010515 -0.026041 0.058489 -0.069656 0.018079 -0.002626 -0.032943 0.012147 -0.058141 -0.016453 -0.088765 0.080052 0.020758 -0.051832 -0.154377 -0.103700 -0.038667 0.002109 -0.125608 -0.060363 -0.079151 -0.165717 0.003053 0.003394 0.008928 -0.131190 0.059529 0.095827 -0.077939 0.026236 0.090236 0.019816 -0.009329 -0.053455 -0.075310 0.012581 -0.019060 0.035814 0.145446 0.061526 0.072152 -0.026453 -0.076620 -0.015774 -0.022118 -0.025330 -0.060523 -0.202526 0.034296 -0.049837 -0.028067 -0.000250 -0.017523 0.024442 -0.042844 -0.014767 0.101531 -0.003249 0.004120 0.052531 -0.050240 0.127974 -0.132404 -0.031500 0.054978 -0.044260 -0.049095 0.045541 -0.047482 0.040543 -0.007076 0.108765 -0.095555 0.021271 -0.014544 -0.005313 0.018117 -0.020607 0.123842 -0.110955 -0.075599 0.048592 -0.065112 0.138897 0.112745 0.000598 -0.119757 0.016808 0.038264 0.078517 -0.007086 -0.008181 -0.018153 0.108363 0.134633 0.095807 -0.050004 -0.122144 -0.038174 0.042486 0.069718 -0.023287 -0.141146 0.051649 -0.010495 0.072121 0.097213 0.045476 0.095432 0.009042 0.026478 -0.126792 -0.003842 0.081596 -0.048351 0.029555 0.015095 -0.070680 0.057536 -0.056845 0.064235 0.035480 0.144437 0.052089 0.042711 -0.026729 -0.049529 0.091481 -0.074791 0.056428 -0.094091 0.020480 -0.002161 0.067823 -0.066858 -0.044667 0.066722 -0.089029 0.005708 0.049295 0.059944 -0.057275 -0.160080 0.120066 -0.028610 0.091529 0.048027 -0.042354 -0.048741 0.037765 -0.145454 -0.057620 -0.079090 0.097958 -0.088988 -0.059284 0.060005 0.048667 -0.011542 0.096820 -0.115748 0.118404 0.022260 -0.090471 0.065787 -0.077023 0.045632 -0.096507 0.034760 -0.162938 0.016026 -0.072690 0.018415 -0.009226 0.019520 -0.068851 0.177175 -0.012279 0.009543 0.047114 0.030515 -0.071549 0.068493 -0.135051 -0.057909 0.019677 0.067731 0.011857 -0.003186 -0.012133 0.011041 0.023666 0.010182 -0.034484 0.004255 0.132586 0.013221 0.027491 -0.052140 -0.124458 0.091242 -0.041369 -0.008150 0.021570 -0.064413 -0.072691 0.008868 -0.020348 0.078674 -0.077060 0.001565 -0.060431 -0.016263 -0.115526 -0.144593 -0.018640 0.032723 -0.043735 -0.071979 -0.111197 0.004331 -0.008516 -0.049494 -0.152166 0.045184 -0.066476 0.011334 -0.028571 0.028243 0.007513 0.011119 -0.016747 -0.053927 -0.049463 0.016597 0.102912 0.088772 0.035599 0.033600 0.027677 -0.058424 -0.012221 -0.043387 -0.052625 -0.029426 0.051363 -0.035466 0.078023 -0.008858 -0.121064 -0.002288 0.011250 0.060916 -0.011998 0.067323 0.015320 -0.050425 -0.030887 -0.135338 -0.044575 0.027070 -0.109258 0.051922 -0.055012 0.064198 0.051438 -0.036446 -0.063817 0.055266 0.078939 -0.057386 0.066736 0.087781 0.050975 -0.067266 0.014754 0.082691 0.048502 -0.010710 0.038299 -0.016823 -0.069213 -0.074287 -0.012886 -0.010946 0.029264 -0.071446 -0.032335 -0.134909 -0.003706 0.098282 0.089190 -0.020063 0.127975 -0.045707 0.081271 -0.025402 0.048494 0.003374 0.019190 -0.014015 -0.037539 0.015933 0.096483 0.087847 0.043489 -0.001188 0.006655 -0.055785 -0.098860 0.062139 -0.010117 0.081876 0.033812 -0.003633 0.114841 -0.068011 0.241306 -0.063048 0.050298 0.064593 0.021270 0.061757 -0.075064 -0.030394 0.022875 -0.072737 0.052507 -0.078034 -0.012335 0.062690 -0.044912 0.012154 -0.055509 -0.051894 0.056436 -0.027612 -0.120363 -0.044080 0.048719 0.044616 -0.016147 -0.000774 -0.038346 0.043454 -0.146568 -0.028562 -0.074853 0.059327 -0.091092 -0.025678 -0.001362 -0.044399 0.052102 -0.010391 -0.155576 -0.044007 0.056729 -0.032318 0.019391 0.022924 -0.056757 0.027460 -0.011011 0.016907 -0.056576 0.066862 -0.030505 -0.030556 -0.008319 0.081533 -0.040863
allcaps -0.023290 -0.066009 0.019374 -0.255619 -0.091021 0.323985 0.111557 0.035497 0.056106 -0.081240 -0.188834 -0.080959 0.197966 0.072811 0.097549 0.011863 -0.032800 0.018250 0.091954 -0.008990 -0.094360 -0.079725 0.284772 0.083349 0.086036 -0.005155 -0.038139 0.130218 -0.070699 0.073860 -0.002252 0.024145 -0.003325 0.083081 0.050164 0.070758 0.043162 -0.104358 -0.027691 0.039888 -0.005807 0.016408 0.051933 -0.059212 -0.088574 -0.010644 -0.034426 -0.099037 0.050557 -0.049926 0.059606 -0.032083 0.004898 0.093632 -0.036614 -0.043014 -0.061176 0.059866 -0.091720 -0.015812 0.038887 -0.111848 -0.061971 -0.157937 -0.033261 -0.020006 0.162724 0.089661 -0.272204 -0.016319 0.019556 -0.105978 0.076332 -0.136205 0.061374 0.090800 -0.049186 0.010976 -0.074435 -0.119842 0.188685 0.068478 -0.131238 -0.061376 0.159480 0.030491 0.278484 -0.061109 0.145764 0.077302 -0.026211 -0.036569 0.168075 -0.227267 -0.033968 -0.083137 -0.008603 -0.103503 -0.115877 -0.013192 -0.114713 -0.050532 -0.046078 -0.004941 -0.125118 0.047219 0.011644 -0.033652 0.089531 -0.085310 -0.073167 0.039941 0.212340 -0.157553 -0.108760 -0.082878 0.084018 0.031691 0.062580 -0.048809 0.022725 -0.076210 -0.104618 0.022529 0.013895 0.088980 -0.079136 0.130305 -0.002118 0.095231 -0.014669 0.076823 -0.204655 -0.037547 0.033720 -0.081344 0.065467 0.115703 -0.121983 0.201017 0.088456 0.149535 -0.111703 0.042084 -0.080719 0.080711 -0.079654 -0.151059 0.028359 -0.149806 0.025010 -0.017897 -0.107958 0.101429 0.039110 -0.015370 0.039498 0.054969 -0.044569 -0.072497 0.093103 -0.104066 -0.209191 0.048588 0.020972 -0.002029 0.076969 0.060372 0.049668 0.097968 0.029331 0.028472 -0.168749 0.045458 0.017271 -0.087574 0.162639 -0.061196 0.072529 -0.190567 -0.142342 0.075874 0.161428 0.087550 -0.025966 0.028557 -0.007912 -0.098820 0.089819 0.005826 0.073010 0.064803 -0.008145 -0.060856 -0.068222 -0.057320 -0.030356 -0.038615 -0.006465 0.121396 -0.050789 -0.074112 -0.031343 0.107491 0.036900 -0.015889 0.064086 0.094508 0.075288 -0.051784 0.012351 0.050390 0.052927 0.138609 0.044329 0.034140 0.059091 -0.038150 -0.029096 0.111663 0.010476 0.054856 0.033151 -0.124154 0.005151 0.042416 -0.030316 0.035165 0.107951 0.010581 0.027708 0.080464 0.025816 0.155267 -0.033928 0.069985 -0.077176 0.007063 -0.049022 -0.042552 0.062192 -0.018223 0.026643 -0.052039 0.034636 0.188353 0.024325 0.006981 -0.016934 -0.035772 0.179797 -0.042136 -0.204129 -0.020594 -0.034096 -0.177854 0.079210 0.085508 -0.100800 0.059172 0.044149 0.170104 0.113837 0.101793 0.023956 -0.087227 0.041015 0.065608 -0.206815 0.035125 -0.158226 -0.087099 -0.022823 0.085146 -0.062925 0.196266 -0.035296 0.137811 0.067353 -0.010447 -0.003159 0.012315 -0.059558 0.045150 -0.050339 -0.131885 -0.036379 -0.011862 -0.174415 0.154579 -0.070149 -0.080840 0.044044 0.045397 -0.094614 -0.035867 0.047242 -0.009087 -0.103779 -0.071700 -0.247119 0.075060 0.046527 0.032566 0.040463 0.110222 -0.108975 0.149534 -0.126910 -0.006300 0.019548 -0.021069 -0.054800 0.023489 0.050197 0.151444 -0.021086 0.147598 0.022722 0.132019 -0.005710 -0.027649 -0.208151 0.099020 -0.024082 0.135929 -0.015664 -0.211056 0.025931 -0.179675 0.008479 -0.137538 0.108276 -0.172482 -0.065482 -0.089468 -0.216203 -0.029956 -0.083658 -0.083781 -0.034804 -0.087495 -0.113090 0.033242 -0.071797 -0.052116 -0.051347 -0.180748 -0.054822 0.118694 0.051551 0.077708 0.000410 -0.055211 -0.054488 -0.040359 -0.102942 -0.044740 -0.012717 -0.047018 -0.012871 -0.013727 0.108168 -0.025780 -0.017989 -0.026050 0.027679 0.111472 -0.003083 -0.148517 0.050534 -0.094588 -0.015456 -0.029841 0.033796 0.000421 0.018536 -0.003048 0.067107 -0.103637 -0.133444 0.040750 -0.157394 -0.141835 0.121549 0.010619 -0.200049 0.104366 -0.059673 -0.102050 0.050295 -0.064567 0.071624 0.181027 -0.072505 0.020140 0.086518 -0.165373 -0.002650 0.088429 0.020520 0.169332 0.037639 0.082043 0.090637 0.048819 -0.201923 -0.064115 0.123045 0.149863 0.085725 0.001785 0.049615 -0.138048 0.025076 -0.015508 0.034813 -0.044298 0.018223 0.135993 -0.232228 0.080241 0.078226 0.079206 0.079345 0.035360 -0.059350 -0.062669 -0.007135 -0.050695 0.019830 -0.003486 -0.024116 0.032897 -0.033077 0.002957 -0.069430 -0.110948 0.003492 -0.007512 0.057967 -0.151009 0.023386 0.043132 0.050631 -0.028322 0.024356 0.017470 -0.086413 0.061179 0.007421 0.213289 0.141570 0.016428 0.087142 0.132646 -0.043932 -0.121363 0.168034 -0.134387 -0.028605 0.037562 -0.040080 0.109625 0.064569 0.038314 0.072761 0.128766 -0.081616 -0.002558 0.077163 -0.058035 0.088723 0.063142 0.000513 -0.033660 0.050372 -0.015026 0.089803 -0.125420 -0.036544 -0.118476 -0.248531 0.019675 -0.117083 -0.081157 0.140138 0.049092 0.056517 -0.033784 0.073662 0.165747 0.216484 -0.200878 0.153587 -0.016978 0.030508 0.042659 0.061668 0.053521
a -0.019367 0.026376 -0.045981 -0.068531 -0.143653 -0.060731 0.012779 -0.012106 -0.072903 -0.129964 -0.026750 0.277632 -0.021368 0.195685 -0.023197 0.130339 0.018482 0.163025 -0.008007 0.147236 0.201834 -0.062455 0.120017 -0.199834 -0.018908 0.126919 0.027165 -0.187451 -0.024851 -0.078613 -0.060086 0.052446 0.000697 -0.171945 -0.031876 0.019642 0.160746 0.035258 -0.158999 0.032191 0.092612 0.016860 0.059721 0.093305 -0.032164 0.013481 -0.259356 0.051525 0.074497 -0.258572 0.040462 -0.137491 0.007398 0.255271 -0.122935 0.100238 -0.049331 -0.052423 -0.033696 0.093376 0.147556 0.057150 0.046084 0.066158 -0.136784 -0.018443 0.139204 -0.022697 -0.033222 -0.057830 -0.112953 0.029391 -0.011053 0.032357 -0.014109 -0.002774 0.001656 -0.158863 0.048169 -0.084540 0.000522 0.078261 -0.203699 -0.047173 -0.089193 -0.010926 -0.134577 -0.059315 -0.062344 0.085846 0.045335 -0.027266 0.169345 -0.025333 0.040963 -0.126345 -0.007391 0.002840 0.109152 -0.121540 -0.002980 0.028165 -0.006298 0.016939 0.099687 -0.009515 0.029164 -0.058911 0.079235 0.003079 -0.030165 0.051952 -0.062857 0.017876 0.016891 0.050407 -0.082381 0.102540 -0.055845 0.002964 0.001475 0.106865 -0.187552 -0.119435 0.062660 0.029776 -0.063662 -0.049906 0.021207 0.220677 0.179567 -0.001369 -0.001474 -0.004518 -0.085885 0.314702 -0.077698 -0.185753 0.131396 -0.168784 -0.100428 0.067227 -0.147838 0.132348 -0.018994 0.078429 -0.062044 0.195451 -0.101765 -0.104674 0.003013 0.051324 0.110465 0.039501 -0.039330 0.003168 0.051696 -0.054646 0.038241 0.171780 0.038811 0.016392 -0.151448 0.038865 0.013609 0.014929 -0.099559 0.043339 -0.074120 0.058768 0.088920 -0.091287 0.028043 0.000812 0.055531 0.038109 0.040653 -0.082475 -0.049394 0.096647 0.003261 0.011361 -0.025197 -0.071646 0.072475 0.074589 -0.033292 0.122766 -0.072986 -0.086880 -0.061247 0.140179 -0.068442 -0.000460 0.053902 0.010989 -0.095890 0.030627 -0.130539 0.057993 0.009736 -0.064853 0.038921 0.099803 -0.012376 0.042032 -0.002780 0.170691 -0.040302 -0.007781 0.029536 0.005070 -0.070213 -0.029692 -0.038298 -0.082156 -0.094940 0.029152 0.055274 0.124810 -0.037698 -0.088077 -0.082361 -0.019495 0.052778 0.004226 0.071773 -0.017800 -0.141687 -0.004798 0.128703 -0.051146 0.027978 0.101510 -0.034008 -0.166270 -0.053604 0.082409 0.015285 0.158688 0.096343 0.082885 -0.022851 0.143499 0.005413 -0.061232 0.064003 -0.037646 0.081437 0.047712 -0.133358 0.026349 0.013278 0.169310 0.130813 -0.011807 0.040107 -0.049692 -0.029054 -0.057268 0.065918 -0.056641 0.078759 -0.017558 -0.084011 -0.065339 0.011835 0.023175 0.017240 0.031043 -0.098828 -0.028603 -0.001090 0.093132 -0.037062 -0.025640 -0.052189 -0.203861 0.023002 -0.035187 -0.130617 -0.104500 0.047743 -0.036900 0.011009 -0.007744 -0.066553 -0.013097 -0.092179 -0.136245 0.010417 -0.104850 0.129531 0.065061 0.061081 -0.048714 0.115415 0.100572 0.046982 0.164266 0.020801 -0.021637 -0.144739 0.104316 0.007515 -0.051554 -0.138036 0.045021 -0.058106 0.085438 -0.075692 0.099030 -0.031933 -0.135729 0.021391 -0.097130 0.104758 -0.050518 -0.046297 0.115762 -0.009340 -0.056556 0.082275 -0.044873 -0.024658 0.087728 0.080259 0.056185 -0.079569 0.107923 -0.073146 0.093003 0.011846 0.007700 -0.057225 0.196361 0.066748 -0.173373 0.107564 -0.007637 -0.122280 0.086154 0.115204 -0.146745 -0.031629 -0.026925 0.033360 0.145549 -0.125061 -0.017107 0.184979 -0.089967 -0.016129 0.122043 0.068169 -0.075220 -0.034834 0.060130 0.036093 -0.064004 -0.078617 0.054990 -0.132883 0.094941 0.117317 0.144780 -0.211769 -0.002977 0.014301 0.003943 0.047574 -0.030655 -0.035185 -0.035861 0.048533 -0.013595 0.077013 0.131455 0.098559 0.093227 -0.010174 -0.160668 -0.005847 0.019904 0.057040 0.032201 -0.172455 -0.052064 0.044359 -0.073768 0.136440 -0.010263 0.072430 0.033567 -0.040375 0.064987 -0.109835 -0.124585 -0.068620 0.016903 0.007846 0.078825 0.019265 -0.036713 0.080386 0.068595 -0.003670 -0.026482 -0.002827 0.111653 0.041861 0.006374 0.073628 -0.079929 -0.037416 -0.040100 0.059337 0.042469 -0.016194 -0.070440 0.029593 -0.001515 0.074725 0.071466 0.115885 0.031792 -0.055941 0.046833 0.063034 0.090973 -0.028284 -0.068358 0.005328 -0.203615 0.020213 0.046569 0.006015 0.035364 0.178259 0.003638 0.132111 0.109476 -0.115313 -0.053305 -0.033465 -0.146757 -0.033315 -0.100913 0.117173 -0.033279 0.056635 -0.043795 -0.090147 0.003569 0.025326 -0.029964 -0.039840 -0.131282 -0.134226 0.088284 0.083870 -0.039836 0.034656 0.060530 0.145321 -0.013252 0.030835 -0.006546 0.021789 0.047110 -0.040166 0.141094 -0.059923 0.004008 0.134567 0.054177 0.002699 -0.113004 -0.064956 -0.102857 -0.067618 0.016532 0.057887 -0.087797 0.136657 0.017999 -0.038294 0.089020 0.038278 0.137957 0.052122 -0.079527 -0.005009 -0.082302 -0.026799 0.171569 -0.118743 0.067004 -0.089746 0.200461
my 0.057040 -0.050004 0.073189 -0.068537 -0.158570 0.266647 -0.026323 0.047730 0.015151 -0.150258 -0.118370 0.136853 0.027866 0.108086 -0.000412 0.086008 0.049788 -0.022328 0.016285 0.149615 0.025181 0.123294 0.062002 -0.060668 -0.041850 -0.087399 0.000648 -0.040909 0.092116 -0.048268 0.027528 -0.091200 -0.124392 -0.003989 0.063830 0.065454 0.018118 -0.050310 0.005410 -0.104478 -0.002842 0.109190 -0.119533 0.033664 -0.148611 0.002348 -0.140600 0.122727 -0.082855 -0.136080 -0.006742 0.157569 -0.068490 0.125894 -0.019655 -0.078762 -0.053531 -0.018048 -0.162881 0.073741 0.244000 0.057760 0.003216 -0.009692 -0.043314 0.023961 -0.122369 0.037642 0.070217 -0.091792 0.009821 0.070697 -0.060110 0.041685 0.075071 0.037286 0.025200 0.065334 -0.120460 -0.051201 0.033350 -0.042339 0.022094 -0.090332 -0.036303 0.105116 0.079283 -0.004660 -0.182671 -0.070188 0.083260 0.013933 -0.055219 0.000124 -0.043748 0.049136 0.049251 0.099558 -0.007408 0.157782 0.019946 0.088727 0.154383 0.263269 -0.062706 -0.059170 0.111103 -0.015861 -0.003142 -0.014820 0.002148 -0.054757 0.001772 -0.001851 0.124898 -0.052226 0.038508 -0.006134 -0.018444 0.028440 -0.156904 -0.076209 -0.122517 -0.018730 -0.001155 0.067528 0.024816 0.023207 0.034736 0.136389 0.009957 -0.031717 0.037248 0.157757 0.022602 0.011697 -0.039408 -0.069346 -0.017577 -0.010579 -0.062142 0.102259 0.045470 -0.049537 -0.012796 0.113223 0.105426 0.010776 -0.039931 -0.025978 0.112857 0.042613 0.066104 -0.049718 -0.023161 0.137910 0.093767 -0.015996 0.053114 0.053907 0.015913 0.097304 -0.015372 0.075284 -0.062380 -0.031103 -0.042075 -0.012588 0.058068 -0.066291 -0.088732 -0.132619 -0.131268 0.075338 -0.042552 0.021356 0.073369 0.077867 -0.143575 0.031551 0.033685 -0.054376 0.046419 -0.087841 -0.102613 0.037448 -0.252512 -0.050102 0.106961 -0.074019 0.166981 0.037907 -0.079294 0.019036 0.145419 0.128859 0.074701 0.042767 -0.007746 -0.067731 -0.119055 -0.091246 0.029288 -0.037588 -0.135121 -0.184334 -0.053105 0.072981 0.060094 -0.082274 0.165486 0.048372 -0.154511 -0.016481 -0.065208 -0.010664 -0.032502 -0.021848 0.096927 0.129948 -0.003944 0.126190 0.014021 0.038583 0.112942 0.068235 -0.140754 0.030826 0.008387 0.098187 0.093880 0.006395 0.027500 -0.010267 0.023764 -0.101932 -0.003064 0.099529 -0.025859 0.064673 -0.016620 0.029914 -0.077965 -0.116907 -0.060551 -0.010341 -0.096025 -0.009594 -0.047765 -0.011450 0.007938 -0.005592 -0.022384 0.063353 -0.003998 -0.091933 -0.028594 0.014588 0.062640 -0.049330 0.110718 -0.074414 0.133314 -0.168756 0.055766 0.076826 -0.065159 -0.017830 -0.074561 0.204373 -0.070509 0.064372 -0.187501 -0.050023 0.026286 -0.008920 -0.019504 0.071856 0.167431 -0.023669 -0.019353 -0.054213 0.118148 0.103193 -0.028918 -0.045829 -0.086002 -0.151507 0.118213 -0.112863 -0.129537 -0.038741 -0.081118 0.052032 0.112825 -0.039791 0.131288 0.112405 -0.012202 0.122184 0.066407 0.013214 -0.133116 -0.011040 -0.039338 0.141102 0.037248 0.032454 0.006591 -0.075483 0.056965 0.093097 0.033497 -0.013156 -0.010681 0.015981 0.041540 0.052484 -0.020917 -0.123297 0.038927 -0.181978 -0.002575 0.086651 -0.034378 -0.090678 0.038867 0.084157 0.107117 -0.108204 -0.155646 -0.154972 0.035530 -0.080104 -0.144735 0.067270 0.012417 -0.064450 -0.016459 0.105208 -0.058328 -0.052591 0.043506 -0.030243 -0.065862 -0.016199 0.000571 0.032924 0.023041 -0.075757 -0.003169 -0.215630 0.088528 0.048630 -0.035837 0.006288 -0.050719 0.107047 -0.012943 0.046018 -0.029576 -0.025395 0.035843 0.170413 0.047551 -0.251280 0.095854 -0.068746 0.054389 0.124938 0.017762 -0.075074 -0.066624 -0.012492 -0.059438 0.050214 -0.076897 -0.060233 -0.049697 0.184829 0.130364 -0.159496 -0.088684 0.195071 -0.028508 -0.153856 -0.061894 0.079906 0.279948 -0.036221 0.141627 0.106745 0.185834 0.009732 -0.067893 0.027920 -0.117378 -0.045819 0.009225 -0.012977 0.064755 0.011415 -0.041208 -0.079776 -0.099579 0.025984 0.072954 0.221464 -0.035131 -0.120442 -0.116552 -0.035568 0.048392 -0.000941 -0.011172 0.104789 -0.058816 0.150712 0.019642 -0.093172 0.072306 0.199892 -0.054417 -0.012071 -0.030542 0.026852 0.095277 -0.013306 0.215088 0.070762 -0.038220 -0.124218 -0.076107 -0.077843 -0.071085 -0.002364 0.063127 0.095444 0.024102 -0.037892 0.057099 -0.052617 0.157745 -0.102060 0.070335 -0.237162 -0.113984 0.032511 -0.035340 -0.053454 -0.076809 -0.117635 0.027633 -0.030614 0.079499 0.041848 -0.013285 0.034206 0.125917 0.004678 -0.086571 -0.028242 -0.026591 -0.101877 0.017446 0.164124 0.003635 0.053575 0.043478 0.022544 0.088900 -0.057868 0.129957 0.134390 0.009574 -0.082779 -0.012751 0.059122 -0.043004 -0.119211 0.094187 0.064475 0.039862 -0.095592 -0.023213 0.061160 0.070254 0.146604 -0.131275 0.075068 0.169703 0.062059 0.071412 0.046079 -0.016816 0.007491 -0.063013 0.049285 -0.048216 0.021573
and 0.055804 -0.101486 -0.076984 -0.127693 -0.047164 0.121830 0.069675 -0.053758 0.105358 -0.315245 -0.031994 -0.046397 0.036343 0.082622 -0.152327 0.013558 -0.003274 -0.078972 -0.042347 0.047687 0.000473 0.046046 -0.019057 -0.003181 0.018926 -0.050563 -0.124502 0.032854 0.098849 0.111087 0.071485 0.183329 0.055575 0.094529 -0.028007 0.119274 -0.048344 0.026476 0.109402 0.177290 -0.005333 0.069880 -0.009471 0.001571 0.140723 -0.013726 0.002864 -0.123496 -0.037024 -0.050779 0.016349 -0.095423 -0.000766 0.103159 -0.127182 0.054786 0.031635 -0.058410 0.160281 0.120792 0.092492 -0.148937 0.016827 -0.109277 -0.082394 0.016435 -0.104745 0.121191 0.052783 -0.082262 -0.054396 0.050631 0.004870 -0.109863 -0.024033 0.038867 -0.080231 0.117738 -0.029285 0.034909 -0.024259 0.075945 -0.042701 -0.049764 0.128951 -0.096752 0.132714 -0.048810 -0.067131 0.033952 0.054463 0.073154 0.160015 0.006388 0.000505 0.030809 -0.055617 -0.025588 -0.006250 -0.013694 -0.118178 0.116471 0.006178 0.093634 -0.025376 0.109145 0.045913 0.076526 0.008388 0.018256 0.016843 0.014276 -0.036623 -0.084678 0.153652 0.049578 -0.072031 -0.013177 -0.021650 0.067437 -0.005340 0.021954 -0.054556 0.021039 -0.092190 0.068250 -0.059787 -0.042078 0.032377 -0.019395 0.008251 -0.045580 -0.009826 -0.013441 0.090790 0.119274 0.033289 -0.031019 -0.046383 0.061449 -0.078426 0.126030 -0.030689 0.039716 0.005994 0.034022 0.047204 -0.045984 0.043654 0.017846 -0.007544 0.092132 0.068221 0.059706 0.035710 -0.021035 0.052906 -0.086689 0.073514 -0.005676 -0.014043 -0.006265 -0.113412 -0.025834 0.024128 0.088913 0.003441 0.014887 -0.037698 0.070233 0.026734 0.061684 -0.003944 -0.053574 -0.040250 0.058905 0.055190 -0.034996 -0.059714 0.035384 -0.038466 0.138371 0.087297 0.080435 -0.136166 0.082920 -0.031938 0.010924 0.024701 -0.032659 0.085657 -0.081826 -0.038031 -0.001220 -0.017534 0.047081 0.008515 0.071224 0.014048 -0.026802 -0.075909 -0.075095 0.038127 0.123262 0.060711 0.075788 0.060755 0.119595 -0.028363 -0.134659 0.019803 -0.079425 -0.193238 0.001519 -0.014541 -0.076609 -0.044678 -0.110708 0.092340 0.023232 -0.077718 -0.034948 -0.037136 0.079771 0.000525 -0.021819 -0.142274 0.080869 -0.037759 -0.007436 0.080620 -0.054503 0.027817 0.098394 0.061659 0.061847 -0.112277 -0.020815 0.146839 -0.017568 -0.055437 0.012933 -0.109742 0.047749 -0.066435 0.013990 -0.096375 0.077280 -0.043333 -0.031452 0.025921 0.074756 -0.133131 -0.017943 0.068597 -0.077383 0.111737 0.009652 -0.029530 0.084110 0.077440 0.072680 0.032539 0.025163 -0.061159 -0.042443 0.000208 0.053975 0.078075 0.144443 -0.003832 -0.081587 0.027220 -0.059546 0.063435 -0.014154 0.057845 0.043575 0.016366 0.014971 -0.015028 0.084481 0.078160 0.100113 0.035554 -0.036433 0.024157 -0.138407 -0.050322 -0.023331 -0.066880 -0.074009 -0.084495 0.068395 0.166532 -0.031868 0.009024 0.058466 -0.105325 0.063742 -0.015340 0.083584 -0.027389 0.058026 0.021682 -0.029156 -0.045766 -0.140412 -0.032926 -0.045566 -0.023542 0.020168 0.089381 -0.004731 -0.059213 0.115448 -0.022888 0.085892 -0.077790 -0.013903 0.039081 -0.068992 -0.035397 0.111852 -0.058182 -0.014375 0.036079 0.091087 -0.010881 -0.055748 0.049761 -0.134090 -0.115430 -0.028611 -0.099718 -0.007397 -0.086901 -0.007391 -0.102308 -0.096945 -0.010019 0.035159 0.016034 0.089746 0.028851 -0.086804 -0.078416 0.069560 0.048185 -0.060731 0.040181 -0.011565 -0.016362 0.104276 0.013593 0.041338 0.027511 0.066038 0.083424 -0.017056 -0.011890 -0.121942 0.004108 0.072935 0.034917 -0.067514 0.067555 0.054769 0.002156 0.065810 0.030016 -0.078488 0.039685 -0.113699 -0.095001 0.048221 0.099898 -0.012667 0.046759 0.039210 -0.025476 0.015252 -0.032521 -0.029211 -0.175038 -0.018792 -0.051583 -0.046842 0.046919 -0.031740 0.061532 0.049408 -0.101079 0.140935 0.043023 0.020274 0.167342 0.069765 0.026575 -0.179259 -0.085974 0.031271 0.003682 -0.088552 -0.025566 0.053455 -0.033574 0.020646 0.044001 0.013540 -0.018352 0.036489 -0.011952 0.109719 -0.030609 -0.027647 -0.014517 0.096114 0.053564 0.134337 0.143432 0.098996 0.025656 0.101082 0.080513 -0.050496 0.052840 0.051608 -0.060974 0.108612 0.000199 0.117198 -0.014687 -0.045970 -0.030252 0.031203 -0.016552 0.027416 0.198501 0.004645 -0.044662 0.048921 -0.018792 -0.088641 0.086221 0.002789 0.030684 0.068138 -0.014241 -0.004596 -0.063050 0.091982 -0.017345 0.061893 -0.018998 -0.017110 -0.071357 0.035206 -0.011927 0.004988 0.068564 0.048804 -0.053582 0.020091 0.014331 0.020150 -0.001118 -0.055580 0.053143 0.027688 0.007749 0.003675 -0.060942 -0.050637 0.040894 0.023835 0.099895 0.019205 -0.021829 -0.047159 0.141269 0.023784 0.028931 -0.130798 0.074342 0.155178 -0.044392 0.045322 0.041885 -0.086776 0.127492 -0.004008 -0.076285 0.210557 -0.196706 0.025376 -0.037304 -0.016506 -0.114838 -0.052998
you 0.095654 0.130010 -0.026125 -0.095287 0.006736 -0.111420 0.041070 0.201823 -0.010163 -0.102497 -0.032182 -0.122351 -0.216276 0.015559 0.206733 0.050357 0.097585 -0.128303 0.020860 0.098567 -0.157335 -0.017231 -0.045274 -0.106559 0.092512 -0.126346 0.006295 -0.122812 0.082362 0.015743 0.091479 0.083587 0.094312 -0.100643 0.076957 -0.091582 -0.114270 0.092056 -0.062905 -0.013588 -0.057233 -0.176572 0.180125 -0.089644 0.028242 0.029523 0.082524 -0.110867 -0.061998 0.196180 -0.024546 0.105431 0.127327 -0.103971 0.020413 0.160651 -0.074013 -0.008887 0.008117 0.070351 0.051557 -0.107527 0.056541 0.167459 -0.042925 -0.034547 0.073426 -0.045416 0.040919 0.068124 -0.047283 0.070729 0.107536 -0.029693 0.095232 0.147319 0.103532 0.085400 0.057976 0.040113 -0.196419 -0.092453 0.012790 -0.086419 -0.046794 0.106374 0.027294 -0.005644 -0.048894 -0.026372 0.079523 0.157579 -0.118442 -0.015167 0.030696 0.063487 0.011971 0.176027 0.061929 0.120572 -0.003588 -0.101492 0.067135 0.118856 -0.050520 0.083588 0.077431 0.156275 -0.027743 0.069024 -0.059589 0.010036 -0.178327 0.253213 0.166686 -0.074328 -0.063137 0.052126 -0.000594 0.061035 -0.085327 0.045980 -0.035183 -0.010858 -0.033442 0.024268 -0.146819 -0.033886 -0.084125 -0.021202 0.060732 -0.033981 -0.056375 -0.098075 0.008611 0.109464 -0.005980 -0.033442 -0.009550 -0.114484 0.077457 -0.093284 0.010946 -0.115484 -0.079180 0.094546 -0.026244 -0.081459 -0.007345 -0.089632 -0.007227 0.108687 0.073178 -0.035350 -0.101381 0.005654 0.114905 -0.015785 -0.001873 0.019437 -0.000937 -0.071692 -0.096760 0.027892 -0.086240 0.014989 0.069934 0.039246 0.140605 0.052698 -0.011897 -0.110097 0.175225 0.065791 -0.240995 -0.036523 -0.074274 0.046249 -0.068700 -0.069188 0.094288 -0.106216 -0.111443 0.125960 0.023870 0.106520 0.010939 0.101160 0.031025 -0.003458 -0.035540 0.025745 -0.073058 -0.047558 0.036396 0.012559 0.108510 0.013420 -0.004873 -0.043162 -0.039587 -0.000078 -0.260303 0.039324 0.017451 0.084485 0.030396 0.024285 -0.132416 -0.082042 -0.051501 -0.011969 0.065537 -0.072338 0.039809 -0.027343 -0.169907 0.010423 -0.038209 0.119198 0.007461 -0.103221 0.121403 -0.030421 -0.074711 0.018287 0.072358 0.162430 0.085044 0.144549 -0.135308 0.106707 -0.006306 0.019733 -0.037115 0.030542 -0.090048 -0.090159 -0.055723 0.002388 -0.005460 0.148813 -0.052790 0.001865 0.098000 0.067582 0.123262 0.117204 -0.033528 -0.072653 0.031727 -0.195315 0.132332 -0.161232 -0.008752 -0.100912 -0.082714 0.012926 -0.049468 0.040439 -0.112921 -0.001170 0.032553 0.061655 -0.010397 0.073764 -0.017559 0.074432 0.053136 -0.113652 -0.193781 -0.002889 0.004531 0.120181 0.127606 0.100454 0.086435 -0.122457 -0.005251 -0.067446 0.104349 0.049033 0.104456 0.022065 0.055397 0.021670 -0.076300 -0.111741 -0.074826 0.020573 0.122337 0.129274 0.024957 0.063576 0.089696 -0.096521 -0.061370 0.122844 -0.023412 -0.050883 -0.030077 0.058190 -0.023806 -0.035740 -0.015162 0.158558 0.138253 -0.040037 -0.040070 -0.083256 0.017229 0.061815 -0.116277 -0.004648 0.157995 0.047014 0.157951 0.104099 0.002474 -0.007326 -0.004449 0.186369 -0.016826 0.020593 0.007142 0.032498 -0.007821 -0.110010 0.005125 0.000966 -0.009316 -0.150649 0.136536 -0.115986 0.053630 -0.057887 0.069622 0.013699 -0.020653 0.031236 -0.054795 -0.047706 0.001955 -0.132301 -0.038889 0.069218 0.069258 0.068665 -0.006982 -0.116841 0.068614 0.037015 -0.053249 0.003950 0.062105 -0.022230 -0.010632 -0.076892 -0.065422 0.038611 -0.115923 -0.131133 -0.082433 0.020723 0.115784 0.011659 -0.027108 0.037883 -0.015030 0.013578 0.074330 -0.004339 -0.050719 0.077642 0.068841 0.075670 -0.113931 0.020340 0.116081 -0.068315 0.029998 -0.011379 -0.068975 -0.207035 -0.039115 0.042006 0.026117 -0.026199 0.062595 -0.085466 0.083959 0.025152 0.122487 0.058806 -0.036435 0.012398 0.020204 -0.187677 -0.021746 0.017040 -0.106458 -0.039983 0.016042 -0.036143 0.048213 -0.024887 0.077652 0.010990 -0.147110 -0.082841 0.023986 -0.018910 -0.070352 -0.004777 -0.039852 -0.023721 -0.077444 0.030932 -0.027183 -0.016974 0.023076 -0.099441 0.233841 -0.085077 0.010124 -0.045271 -0.025395 -0.009972 -0.072466 0.013703 -0.114462 0.102894 0.043196 -0.031297 0.050495 -0.030513 0.072488 -0.087166 -0.031809 -0.182506 0.000427 0.003908 0.056402 0.024344 -0.003132 0.080791 -0.041546 0.066124 -0.038966 -0.041716 0.026476 0.180664 0.090075 -0.116259 -0.077983 0.120799 0.096918 0.015887 0.096076 -0.064694 0.003369 0.223907 0.148807 -0.064814 -0.081143 0.165894 0.136683 0.075115 0.025488 -0.038404 -0.140426 -0.051776 0.068777 0.020857 -0.153027 0.017028 0.162323 -0.055003 0.080066 -0.013773 0.105119 -0.010166 -0.057590 0.014064 -0.009210 -0.002965 -0.066649 -0.057982 -0.036530 0.021739 0.030847 -0.015226 0.110516 0.068822 0.026904 0.105684 0.116071 -0.141923 0.039236 0.008724
is -0.118122 -0.087329 -0.078385 0.034515 -0.050080 -0.241296 0.025745 0.041487 -0.017052 -0.098994 0.073021 -0.132983 -0.002338 -0.088391 -0.037574 0.052394 0.071226 -0.001919 0.008055 0.099890 -0.099393 0.100367 0.078157 -0.192974 0.119298 -0.152616 -0.202361 0.264791 -0.034393 0.031025 0.049111 -0.072973 -0.080032 -0.236220 0.042877 -0.048092 0.082882 -0.048464 -0.073189 -0.088110 -0.187405 0.056609 0.012236 -0.218391 -0.042921 -0.149884 -0.100973 0.058567 0.015142 -0.143380 -0.115170 -0.059895 -0.162458 -0.026203 -0.017993 0.034936 0.010642 -0.086040 0.021582 0.013298 0.020000 -0.050551 0.001249 0.033080 -0.142277 -0.000725 0.040819 -0.016241 -0.086202 -0.129023 0.007890 0.076776 0.095847 -0.120657 0.031617 0.130864 0.054779 0.102990 -0.011523 0.160325 0.155460 -0.061507 -0.010022 -0.023331 0.084324 0.016812 0.154900 0.177568 0.267547 -0.097995 0.028963 0.046420 0.174075 0.054209 -0.001371 0.096900 -0.006839 0.054503 -0.181477 -0.055297 0.077240 -0.069613 0.132924 0.071817 -0.138146 -0.124270 -0.019685 -0.068141 0.021438 0.005122 -0.039596 -0.018340 0.081095 -0.092020 0.046903 0.073851 0.035436 -0.018466 0.033675 0.080511 0.139494 -0.012222 0.016189 0.132733 -0.049353 0.054738 0.285938 0.032957 -0.005335 -0.043766 -0.029585 -0.089121 -0.014244 0.005157 0.038789 -0.011284 0.023475 0.028588 -0.126676 0.132013 0.065413 0.201628 0.038240 0.078660 -0.010720 -0.104895 0.071636 -0.106537 -0.002313 0.110574 0.118353 0.043282 0.047663 -0.196605 -0.006006 0.085365 -0.092562 0.089098 0.108207 0.046927 -0.033587 0.028206 -0.155549 -0.030855 -0.075699 0.097765 -0.223840 0.042157 -0.030767 0.046446 -0.127642 -0.019349 -0.073068 0.040199 -0.079170 -0.021799 0.040863 -0.047309 -0.053914 0.060282 0.146807 0.061224 0.081292 -0.061031 0.074682 0.083137 -0.105620 -0.090480 -0.085158 0.010188 -0.062402 0.087353 0.055767 -0.005443 0.096364 0.042466 -0.043347 -0.107018 0.035833 -0.165509 0.074233 -0.097034 -0.109082 0.050707 0.158511 0.021687 -0.118606 -0.091495 0.121547 0.208466 0.123607 -0.031883 -0.026548 0.064263 -0.032699 -0.033227 -0.040295 -0.134236 0.070099 0.104446 0.106137 -0.024024 0.013314 -0.198274 -0.094212 -0.031575 0.017458 0.143350 -0.128062 0.005319 0.037784 -0.033113 -0.025841 -0.025818 0.040060 0.033138 -0.070653 -0.024950 -0.059782 0.064474 0.086266 -0.079904 0.071494 0.056362 -0.087095 0.005482 -0.043317 -0.075998 0.000452 0.045493 -0.030285 -0.092261 0.041540 -0.038037 0.067731 -0.093465 0.048740 -0.072977 0.146870 -0.181894 0.037141 -0.024258 0.221335 0.002053 -0.017234 0.011197 -0.025588 0.082836 -0.017806 0.011925 -0.001917 0.015060 -0.055552 0.050726 -0.049179 0.000710 -0.091624 0.159568 -0.082267 -0.117126 -0.033767 -0.009286 0.035617 0.101841 -0.054962 0.016769 -0.084001 -0.035380 -0.127455 -0.090510 0.041295 0.023066 0.041300 0.123722 0.040414 -0.033521 -0.196571 0.081480 -0.047751 0.057565 -0.023800 0.055626 -0.009820 -0.086411 -0.008139 -0.029108 -0.062169 0.245260 0.040434 0.097921 0.019496 -0.060706 0.004637 0.065509 -0.005579 0.085313 -0.021494 -0.035083 -0.032231 -0.021463 0.049276 0.002465 -0.136998 0.001084 -0.167432 0.120031 0.030594 -0.047819 -0.196503 -0.009512 -0.016812 -0.100441 -0.036246 -0.154818 -0.113305 -0.018025 -0.093079 -0.046010 0.024049 -0.173563 -0.052303 -0.073392 0.003114 -0.090356 -0.030660 0.086464 -0.132808 0.093318 0.140189 0.075929 -0.024822 0.082440 0.091537 0.007889 -0.134842 0.053319 -0.017764 -0.015631 -0.134455 0.069975 -0.094425 0.132020 0.031164 -0.026584 -0.029295 -0.034299 -0.061521 -0.121992 0.142253 -0.047657 0.016068 -0.157373 -0.041767 -0.021010 0.108315 -0.005598 0.066879 -0.029406 0.039200 0.073789 0.099098 0.060345 -0.045801 0.032610 -0.032334 -0.036128 -0.028654 -0.141722 -0.045498 0.063163 -0.047033 -0.236157 -0.260495 0.079031 0.026286 0.032628 0.030077 0.056382 0.015687 -0.221921 -0.084255 0.080873 0.109760 -0.046871 0.100770 0.037006 0.060095 0.086433 0.103910 0.002113 0.074126 0.079450 0.045557 0.117812 -0.036803 0.130874 -0.055116 -0.100603 0.006140 0.060811 -0.208243 0.047224 0.021964 0.040357 -0.002507 0.195180 -0.071004 0.091667 0.142379 0.107692 -0.016774 -0.092695 0.014226 0.097478 0.038391 -0.027530 0.024872 -0.211419 0.105818 0.140748 -0.059611 -0.117883 -0.061186 -0.102764 -0.026039 -0.064922 -0.082728 -0.043120 -0.128700 -0.033652 0.116716 0.041861 0.008371 0.044519 -0.100393 0.059584 0.010662 -0.017923 0.141967 0.030837 -0.019501 -0.028954 -0.037025 0.115079 -0.042591 -0.073376 0.008314 0.007903 0.092752 0.047741 0.046085 -0.178182 0.055667 0.036260 0.165248 0.038781 -0.030210 0.098519 0.007916 -0.022711 0.025215 0.004437 0.142389 0.025136 -0.128131 -0.071589 0.029396 0.157238 0.166228 0.186163 -0.004145 -0.076750 -0.009758 -0.053736 -0.134857 -0.226135 0.015667 -0.082949 0.037708 0.183155
it 0.056558 0.069514 0.040656 -0.010806 0.010522 0.027332 0.064442 0.021921 0.023479 -0.062889 0.035430 0.066485 -0.032292 0.019447 0.088721 0.028378 0.198040 0.069634 0.246003 0.102105 0.013645 -0.018322 0.082941 0.104197 -0.086349 0.039052 -0.080311 -0.036998 -0.019441 0.064949 0.065124 0.031191 0.055575 0.137939 -0.099483 0.057826 -0.065831 0.051891 0.064936 -0.113465 0.086224 -0.130738 -0.110569 -0.119979 -0.027426 0.113172 0.153763 -0.119248 0.031985 -0.061585 -0.059458 0.087178 -0.037750 -0.037594 0.007194 0.166137 -0.066703 -0.087566 0.013404 0.077129 0.036154 0.071823 0.238549 -0.006230 -0.022249 0.116694 0.019488 0.128712 0.001047 0.190859 0.128636 -0.035764 0.023535 -0.082472 0.103548 -0.055684 -0.033496 -0.053207 0.127508 -0.018668 0.196480 -0.123607 -0.016640 0.010050 -0.176380 -0.070162 0.077494 -0.119260 0.031766 0.038333 0.079194 0.014428 -0.021555 0.013408 0.021395 -0.026008 -0.064137 0.025108 0.115572 0.126676 -0.035444 0.015697 0.028250 -0.023560 0.089895 0.077623 0.049068 0.044581 -0.115493 -0.194550 -0.063776 -0.057304 -0.022374 -0.038473 0.050818 0.220018 0.058827 0.063455 -0.088260 0.105880 0.022460 0.016986 -0.151841 0.038104 -0.050320 0.020181 -0.041728 -0.118995 -0.087282 0.101776 0.123026 0.013602 -0.011010 0.045684 -0.029199 0.093389 -0.036479 -0.008416 0.145248 -0.057458 0.006885 0.012376 0.038794 0.009349 -0.091755 0.201088 -0.060173 -0.029935 -0.031769 -0.053450 0.057325 0.030558 0.185647 -0.007498 0.043568 -0.107525 0.225963 0.004111 -0.022337 0.034820 -0.013260 0.049562 0.027005 -0.132517 0.160021 0.066562 0.006581 0.029470 0.017462 0.008297 -0.064228 -0.172627 0.086438 -0.020626 -0.123978 -0.034825 -0.011042 0.093227 -0.149954 -0.047759 -0.011842 -0.063051 -0.023899 -0.139772 0.049823 -0.167926 -0.144490 0.099311 -0.161797 0.047273 0.039295 -0.198663 0.113784 -0.010223 -0.031838 0.027118 0.070438 -0.092749 -0.080168 -0.058351 0.129658 -0.080156 0.002822 -0.025823 0.022918 -0.091413 -0.077305 0.069476 -0.070340 0.004679 -0.117617 0.074708 0.047462 0.064191 -0.059146 -0.093056 -0.021164 0.060203 0.046968 0.037449 -0.044253 -0.032148 0.124864 -0.059221 -0.028388 0.079956 -0.078883 0.043581 -0.121700 0.019548 -0.042034 0.015835 -0.062765 -0.211960 0.109697 -0.112940 0.048663 -0.123840 0.069978 0.012847 0.122213 0.050743 -0.071521 -0.005757 0.032525 -0.095960 -0.052626 0.060401 0.052782 0.143408 -0.055486 -0.103113 0.051569 -0.171092 -0.007138 -0.064345 -0.028778 0.040171 -0.190530 -0.031556 -0.038025 -0.060235 -0.132150 0.045169 -0.000420 -0.197512 0.003805 -0.008805 0.079850 -0.083542 0.050617 0.029412 -0.066100 0.078632 -0.030127 -0.113087 0.156612 -0.118443 0.064785 -0.109800 0.006675 0.010458 0.060761 -0.019167 -0.073609 0.017548 -0.121075 0.027069 0.117144 0.067482 0.123161 0.079359 0.006599 0.001201 0.006274 -0.167036 0.104079 -0.048574 0.122119 0.036923 0.114495 -0.051441 -0.006637 -0.014959 0.042523 -0.032739 -0.053872 -0.009504 -0.020657 -0.059903 0.060868 0.035809 -0.081080 -0.027712 -0.014670 0.022691 0.056055 -0.078096 -0.023338 0.028824 -0.077253 0.193826 0.007958 0.171384 -0.016853 0.062796 -0.086719 -0.002593 0.092122 -0.055486 0.072615 -0.019287 -0.144333 0.016652 -0.019559 -0.011338 0.175808 -0.108674 -0.054316 -0.053009 0.024402 -0.055946 0.028766 -0.133872 -0.121834 0.019786 0.088668 0.031337 -0.039413 -0.017623 0.134583 -0.017725 -0.047043 -0.001211 -0.072185 0.029169 0.016100 0.000786 -0.043581 -0.035891 -0.110786 -0.107611 -0.101755 0.092602 0.204944 0.252507 -0.071716 0.002907 -0.001953 0.196518 0.111757 0.051794 0.117112 -0.037232 0.030315 -0.109076 -0.016990 -0.070944 0.047608 -0.029699 -0.027630 -0.148327 0.009178 0.039798 -0.043290 0.007989 0.056444 0.122147 0.044094 0.007692 0.064972 0.076194 0.090967 -0.000292 0.051416 0.096853 0.047769 -0.013196 0.187306 0.098290 -0.018185 0.084614 0.024445 0.000769 0.030315 0.066534 0.024161 -0.055388 0.027424 0.017652 0.109668 -0.024688 -0.054271 0.071643 0.004021 -0.011541 -0.088686 0.029788 0.019496 -0.029423 -0.022633 0.073982 0.095730 0.090685 0.023741 -0.059382 -0.115112 -0.039258 -0.084972 -0.123386 -0.008388 -0.159371 0.001299 0.028875 -0.036451 0.006608 -0.034564 -0.157070 -0.055611 -0.024657 -0.001200 0.096633 0.058021 -0.044690 0.017219 0.096438 0.032188 -0.101352 0.052207 -0.057615 -0.032199 -0.015049 0.078009 -0.066624 -0.122506 0.013200 0.135683 -0.124564 0.012785 -0.071029 -0.020103 -0.139470 0.061538 -0.045209 -0.131107 -0.018789 0.175522 0.019207 -0.012087 0.094788 -0.075145 -0.076848 0.173455 0.095605 -0.044653 -0.000764 -0.055388 -0.052484 0.011869 -0.016101 0.044752 -0.106685 -0.182419 0.098904 -0.037881 -0.080270 -0.087754 0.021114 0.033854 -0.167168 0.022475 0.128597 0.005949 -0.107780 0.140528 -0.016634 0.013872 0.007205 0.118385 -0.005100
for 0.047946 -0.189924 -0.103547 0.026805 0.001223 -0.077880 0.200704 -0.026750 0.005952 0.072360 -0.206497 -0.176192 0.076067 0.135334 -0.041480 -0.034119 0.046042 -0.149027 -0.143312 -0.142865 -0.116239 0.001927 0.050313 0.033696 0.120255 0.099136 0.002164 -0.037856 0.118252 0.088074 -0.198570 0.044377 0.002855 0.014622 -0.005038 0.023958 -0.088374 0.162895 0.013287 0.006525 0.125486 -0.133452 -0.207710 -0.139469 0.004767 -0.103183 -0.049231 -0.067830 0.017099 0.057501 0.094933 0.023610 0.088618 -0.017334 0.019055 0.160947 -0.109613 -0.095217 -0.001245 0.187152 -0.072327 0.016259 0.112270 0.151866 -0.003452 0.099651 0.097785 0.167522 -0.038498 -0.046774 -0.019265 -0.030906 -0.047656 0.208089 0.082111 -0.042182 -0.102053 -0.195622 -0.161883 0.028804 -0.014861 0.111890 -0.090152 0.101160 0.182598 -0.078162 -0.069954 -0.028103 -0.056183 0.033558 -0.018499 -0.058950 0.126978 0.022504 0.084682 0.073952 -0.047504 0.012910 -0.233530 0.100315 0.050639 0.267928 0.068552 0.221270 0.041150 0.066892 0.055828 -0.174081 0.017960 0.016087 -0.133024 -0.019465 -0.018289 0.169196 0.048448 0.001027 -0.092352 0.111424 -0.062112 -0.012657 -0.058520 -0.029471 -0.015019 -0.004545 0.103736 0.109214 0.043195 -0.021690 0.097054 0.067656 0.092003 0.058637 -0.055301 0.032424 -0.095587 0.042338 -0.048206 -0.081857 -0.068185 0.052472 0.028791 -0.008315 0.019402 0.091478 -0.027446 0.153916 0.150819 -0.048122 -0.000993 0.119097 -0.050372 0.045844 0.161734 -0.034840 0.081804 0.012191 -0.062911 -0.001112 0.107485 -0.105001 -0.093692 0.100100 -0.041812 -0.011824 -0.093537 -0.045601 -0.198224 0.180859 -0.072644 0.000967 0.032244 -0.033012 -0.004821 0.188125 0.066222 0.030900 -0.008847 0.072834 -0.087535 0.101777 -0.030800 -0.026441 -0.022884 -0.117176 -0.038509 0.162268 -0.137446 0.071174 0.018146 -0.011076 0.013619 0.001642 -0.026908 -0.019160 0.022015 0.125566 -0.108555 0.085294 -0.043889 0.092298 -0.019650 -0.078038 0.058742 0.008688 0.069179 -0.038391 0.035338 0.061560 0.128616 0.032530 0.064369 0.043659 -0.111388 0.040392 -0.061844 -0.059758 -0.007958 0.037052 -0.084801 -0.042720 -0.016496 0.003500 0.056349 0.080697 0.145157 0.099732 -0.108073 0.047988 -0.152283 -0.037518 0.261749 -0.202285 0.139220 0.153055 0.024040 0.022925 0.000588 0.080451 -0.018824 -0.038059 0.019773 0.044394 -0.040040 -0.034186 0.020936 0.195388 0.004523 0.025148 -0.239253 -0.112905 -0.010640 0.063691 -0.145226 0.083051 -0.176297 -0.012349 0.019843 0.058719 0.029579 -0.070148 -0.093022 0.011535 -0.107231 0.108256 0.008649 -0.052688 -0.005650 0.062328 0.059220 -0.034445 0.001648 0.273618 0.120930 -0.083434 0.042490 -0.119476 0.042446 0.050121 0.088496 -0.172327 -0.085430 -0.013742 -0.033797 -0.134142 0.129088 0.080908 -0.010174 0.072021 -0.152376 0.031004 -0.016011 -0.116662 -0.125644 -0.083952 -0.025182 -0.005449 0.082899 -0.084807 0.027221 -0.040541 0.067666 0.108001 -0.049937 0.016087 0.112506 -0.024019 -0.009801 -0.244630 -0.090189 -0.071203 -0.003294 0.062826 0.171916 0.041102 0.146954 0.157933 0.043164 0.164971 -0.083256 -0.102212 -0.049212 0.086010 0.034465 -0.157766 -0.149437 -0.061960 0.036448 0.023404 -0.041493 0.071323 -0.066727 0.120429 0.076733 -0.079615 -0.094737 0.074658 -0.002752 0.014337 0.041282 -0.186956 0.017001 0.022611 0.031389 0.017910 0.006358 -0.015352 -0.053070 -0.151867 0.000745 -0.037291 0.015935 0.112242 -0.029448 -0.073829 0.099825 -0.022279 0.095784 0.043679 -0.137886 0.246117 0.077047 -0.028435 0.029535 0.000745 0.029831 0.020227 0.024750 0.040163 -0.049345 0.050586 0.010115 -0.118576 0.023347 -0.216890 -0.036737 -0.043860 0.125842 0.050042 0.040037 0.019008 -0.061890 -0.053297 0.081384 -0.060752 0.127294 -0.033768 -0.161424 0.069052 0.025154 0.017802 -0.069660 0.027705 0.007740 -0.119074 -0.139711 0.117380 -0.078074 -0.084444 -0.045560 0.065191 -0.052325 0.128453 0.020577 -0.081345 -0.081365 -0.060644 0.050549 0.003503 0.059732 0.003900 0.051027 -0.024197 -0.017633 0.009090 -0.000327 -0.004036 0.045299 0.096055 -0.184430 0.024506 -0.083711 -0.077231 0.007287 -0.009569 -0.012536 0.126785 0.045319 -0.036194 0.004229 0.073608 -0.006919 -0.090636 0.098290 0.002415 0.047795 0.079682 0.090060 -0.067637 0.136582 0.216113 -0.140181 0.006340 -0.020815 0.047973 0.057831 0.005245 -0.014713 -0.054909 -0.067101 -0.096761 -0.149984 0.023987 0.073042 -0.077758 0.015741 -0.105127 -0.069567 -0.119169 -0.020008 0.167056 -0.029102 -0.077872 -0.038266 -0.046066 0.052122 -0.053723 -0.094697 0.028273 0.045116 0.041061 -0.017487 0.075352 0.032484 0.063256 0.091400 -0.036550 0.051509 0.226798 0.063312 -0.047373 0.110696 0.011203 0.056999 0.029194 0.093185 0.105628 -0.040986 -0.050458 0.104837 0.129600 -0.035935 -0.013084 -0.162562 0.028101 -0.082483 0.106249 0.063044 -0.040091 -0.030445 0.056292
in 0.130542 -0.293225 -0.074881 -0.221483 0.199445 -0.094318 0.218176 0.113387 0.113888 -0.078713 -0.022387 -0.154522 0.021786 0.047085 -0.110570 -0.052725 0.093482 -0.246156 -0.204858 -0.131071 -0.085685 -0.253804 -0.090357 0.074533 0.069383 0.049777 -0.071544 0.035290 0.113102 0.153725 0.056767 -0.076116 -0.061407 0.007370 0.071540 -0.036054 -0.164108 -0.091452 -0.166627 0.011820 0.064812 0.030529 -0.120725 -0.049377 0.017731 -0.068721 -0.016104 -0.242879 0.023198 -0.022293 0.023070 -0.021888 -0.073894 0.057041 -0.053841 -0.131329 -0.223951 0.024230 -0.060565 0.060733 -0.027549 0.106070 -0.149783 -0.075618 0.028367 -0.000703 0.037868 0.120128 0.107891 -0.012188 -0.024387 -0.008527 -0.097897 -0.036071 -0.007401 0.089839 -0.093025 -0.115204 0.125034 -0.082098 0.009399 -0.012956 0.022346 0.046556 -0.071682 0.052031 -0.015249 -0.080197 -0.078286 0.047427 -0.102118 -0.029601 0.026507 -0.064429 0.111378 -0.006826 0.070292 -0.208798 0.026371 -0.269514 0.020696 -0.030632 -0.096931 0.040105 0.024619 0.013212 -0.053751 -0.063250 -0.055727 -0.022155 -0.079282 -0.025038 0.158497 -0.070417 -0.165647 -0.064836 0.137123 -0.048178 0.001445 -0.013056 -0.076687 -0.040438 -0.100394 -0.093771 0.009332 -0.005722 0.016352 -0.065401 -0.084208 0.104518 0.162513 -0.067247 0.040887 0.050121 -0.058309 -0.026364 0.260620 -0.107769 -0.085069 -0.047228 -0.064142 0.113730 0.036165 0.132096 0.060814 -0.014240 0.085683 -0.059289 0.019930 -0.015874 -0.024353 0.065206 0.033062 0.029159 0.004619 -0.052082 -0.098798 -0.116767 -0.124788 -0.091303 0.008021 0.005345 0.026621 -0.010097 -0.099810 0.036110 -0.014614 0.132415 -0.086108 0.019869 0.049850 -0.130502 -0.030547 -0.108377 0.047490 -0.050400 0.060140 0.055450 -0.005500 0.034093 0.073631 -0.036912 0.127472 -0.048004 -0.132573 -0.065916 -0.090725 -0.056746 -0.156164 -0.033861 0.125845 -0.089769 -0.012485 -0.138732 0.127627 0.127278 -0.006846 0.094697 -0.063778 -0.168285 -0.112432 -0.202470 -0.005680 -0.092171 -0.123964 -0.116736 0.060536 0.073747 -0.068451 -0.159014 0.100324 -0.219671 -0.161115 0.003365 -0.025870 -0.140215 0.181141 -0.014371 0.209617 0.050154 -0.028777 -0.100065 -0.045037 0.133585 0.082370 -0.027075 0.031210 0.109345 0.094373 -0.062173 0.113849 -0.018091 0.069197 -0.083940 -0.102056 -0.138290 0.052383 0.046736 -0.053207 -0.144212 0.000244 -0.065407 0.034581 0.001901 -0.181113 0.055625 0.033487 -0.229447 -0.125636 0.066257 -0.065570 -0.043277 -0.022858 0.160031 -0.099280 0.053851 -0.036672 -0.159965 -0.088473 0.087779 0.028234 -0.152242 -0.054318 0.076817 0.096714 0.080967 0.007030 0.036992 0.051966 -0.028656 -0.126490 -0.178726 0.040379 0.049604 0.025280 0.035773 0.012151 0.054834 0.064676 -0.035245 0.097921 -0.166600 -0.044317 0.045993 0.141708 -0.053465 0.047092 -0.017189 0.027122 -0.260673 0.018002 -0.075316 -0.004283 -0.054215 0.081726 -0.012141 -0.138672 -0.099074 0.018753 0.030122 0.085895 0.086887 -0.028091 0.042537 0.106351 -0.098678 -0.125609 -0.064942 -0.014571 0.040204 0.038952 -0.070352 0.073457 -0.149411 0.020160 -0.084270 -0.032660 -0.069895 0.147839 0.015255 0.088392 -0.106287 -0.052520 -0.096097 -0.049729 0.002104 0.084348 0.078855 -0.152856 -0.016848 -0.075091 -0.004030 0.046854 -0.117930 -0.206083 0.142219 0.003251 0.119113 0.020739 0.053108 -0.026253 -0.127862 -0.158981 -0.095209 -0.023493 0.080504 -0.157825 -0.074179 -0.173994 -0.008385 0.002350 -0.077296 -0.027793 -0.000751 0.013894 0.105802 -0.053559 -0.030417 -0.112419 -0.006713 0.003240 0.121974 0.055484 -0.035474 -0.172947 0.017311 -0.033568 0.106833 -0.122046 0.003488 0.035164 -0.053608 0.058920 -0.070397 -0.041751 0.014640 0.053034 -0.090403 0.063194 -0.030778 0.025607 0.081956 -0.007972 0.080109 -0.074331 0.057346 -0.108795 -0.048731 0.025579 0.188614 -0.076553 -0.117713 -0.162087 -0.029117 -0.171143 0.042634 -0.090872 0.062010 0.006705 0.025418 -0.004599 0.104165 0.059171 -0.083061 0.118308 -0.013949 -0.078026 -0.038682 0.127732 0.005228 -0.122423 -0.018361 0.096537 -0.152924 0.025890 -0.007557 -0.015889 -0.088492 0.160079 -0.032044 0.080321 0.106581 0.205339 0.117807 -0.077489 -0.039371 0.090681 0.021314 -0.001239 0.111563 0.033047 -0.070669 0.000443 0.025673 0.012806 0.005837 0.083173 -0.165469 0.004046 0.067978 0.013173 0.036286 -0.083516 -0.002999 0.001967 -0.035289 0.038349 0.095651 -0.025941 0.014062 -0.002887 0.069335 0.132951 0.020979 0.127617 0.000289 -0.118630 0.220956 0.125179 0.029665 -0.106931 0.056417 -0.006025 0.082660 0.040731 -0.011287 -0.016669 -0.073552 -0.159995 0.053167 0.002938 -0.023388 0.025376 -0.097252 0.051602 -0.036174 0.128021 0.080561 -0.017805 -0.089145 0.006545 -0.118791 -0.139773 -0.009135 -0.016195 0.086624 -0.155873 -0.020863 0.025409 0.004109 0.051548 -0.038255 -0.074598 -0.068818 -0.086042 -0.153774 -0.095111 0.018465 -0.026374 0.040279
number 0.052169 0.015699 0.051152 -0.130366 -0.047857 0.099754 0.032551 0.018092 -0.086356 -0.014908 -0.094511 -0.015575 0.291690 0.015495 -0.093833 -0.039856 0.026060 0.098504 0.164016 -0.127809 -0.206483 0.027033 0.007057 -0.033990 -0.058783 -0.026539 -0.094972 -0.272511 0.075443 -0.068929 -0.041776 -0.030969 -0.065172 0.096654 -0.093066 0.162206 -0.057673 0.008296 0.061003 -0.164323 0.114422 -0.000851 -0.124388 -0.096427 -0.023778 0.014384 -0.098570 -0.008848 0.069872 -0.081399 -0.062666 0.004360 -0.030420 0.137312 0.033171 0.143654 -0.066655 0.004088 0.076179 -0.145615 -0.008843 0.007704 -0.009014 -0.097832 0.000168 0.152040 0.021253 -0.000297 -0.025921 -0.168882 0.014452 0.070027 -0.032441 -0.130171 0.061473 0.030400 0.088336 -0.111276 0.059649 0.112163 -0.058654 -0.021799 -0.009207 0.016364 -0.026405 -0.066848 -0.271816 0.033527 0.274062 0.023321 0.071299 0.047110 0.217546 0.006970 -0.022114 -0.003118 0.080330 0.101543 0.101457 -0.243495 0.011888 -0.004144 -0.170583 -0.004522 0.118043 -0.012199 -0.059929 -0.083093 -0.010665 -0.040919 0.010630 0.054604 -0.102656 0.100846 0.091319 -0.033104 -0.104704 0.089262 -0.006302 -0.034938 -0.072651 -0.044051 -0.104819 -0.072677 0.072881 0.178593 -0.028105 0.090472 -0.009458 0.004134 0.037916 0.035245 0.129580 0.072801 -0.086409 -0.148352 0.129379 0.133653 -0.066047 0.034491 0.027814 -0.106131 -0.051567 -0.094721 -0.070217 -0.055046 -0.047683 0.010663 0.148739 0.126256 -0.016905 0.178466 0.033986 0.094793 0.085089 -0.169005 0.076560 0.090861 -0.037063 0.008753 0.032860 -0.005178 -0.065160 0.005526 -0.018519 -0.022960 -0.125902 -0.057399 0.128166 0.185250 -0.026062 0.044288 -0.053457 0.008563 0.063286 -0.042006 -0.007343 0.009938 0.062690 -0.001556 0.147059 0.044931 0.160774 -0.182605 -0.098439 -0.086683 -0.031888 -0.120422 0.136052 -0.086545 0.049196 0.066338 -0.105773 -0.074570 0.014468 0.003969 0.098343 0.108457 -0.007611 -0.003579 -0.053231 -0.006975 -0.013852 0.035042 0.022082 0.058200 -0.014500 0.098741 0.082026 0.001554 0.001846 0.146942 -0.000954 -0.034193 -0.186799 -0.004846 0.113781 0.113637 0.186286 -0.065725 0.026460 0.003116 0.028174 0.119156 0.217753 0.108515 -0.277098 -0.126603 -0.005729 -0.319874 0.122220 0.064914 0.006800 0.129077 0.133938 0.138815 0.011373 -0.049142 0.031973 0.081421 0.070794 -0.074903 0.098427 -0.113238 -0.005290 -0.024692 0.062410 0.083962 0.121551 0.136552 0.098196 -0.096252 0.132005 -0.078123 -0.022320 -0.188473 0.131125 -0.034210 0.148712 0.125950 -0.100100 0.002441 0.068707 -0.045938 0.111688 0.091019 -0.006452 0.034200 -0.054412 -0.067044 -0.043904 -0.091199 0.015074 0.005536 -0.000312 0.076168 0.050258 -0.172366 0.043033 0.023610 -0.033650 -0.112459 0.067070 -0.015922 -0.061433 0.147433 -0.144027 -0.011698 -0.066300 0.017571 -0.079808 -0.052442 0.011811 0.050326 -0.003754 0.028161 -0.120132 0.026077 0.073163 -0.049676 0.078925 0.009315 0.044634 0.017834 0.068858 -0.026004 0.045346 -0.063370 0.044845 0.075933 0.040039 -0.128248 0.055575 -0.218155 -0.088851 -0.072503 -0.048901 -0.082216 0.006673 -0.026196 0.065522 -0.199182 -0.085089 0.108611 0.010993 -0.058336 0.045613 -0.168376 -0.068394 -0.037376 -0.007680 -0.042527 -0.012909 -0.089520 -0.099309 0.058950 -0.125696 -0.086610 0.041261 -0.027220 0.005979 -0.030974 0.079116 0.126701 -0.059838 -0.070063 0.016454 -0.218934 -0.138636 -0.058251 0.021230 0.106761 -0.019783 0.066849 0.116117 -0.157038 0.010616 0.138531 -0.099491 0.043441 0.032000 -0.084609 0.048686 -0.107434 0.033192 0.079930 0.060900 -0.057693 0.069140 -0.019744 0.030169 0.033827 -0.194588 -0.080515 -0.031982 0.196287 0.103747 -0.058444 0.182855 0.053838 -0.122155 -0.258978 -0.010530 -0.068114 0.070185 -0.090870 -0.156059 -0.076193 -0.076751 0.016795 0.007742 -0.049493 -0.076936 -0.148282 0.118772 0.032142 -0.298011 -0.079681 0.204460 0.141584 0.059447 -0.061072 0.136449 0.001723 -0.060456 0.020767 0.042078 -0.080062 0.150933 -0.117751 0.026218 0.005343 -0.054663 -0.057228 0.038593 0.080063 0.040429 0.081575 -0.098907 -0.029841 -0.135735 -0.096691 0.023923 0.207071 -0.110946 0.147825 0.020466 -0.091268 -0.176680 0.051915 -0.028549 0.018534 0.100715 -0.108889 -0.079133 0.131539 -0.039618 0.059646 -0.112698 -0.000544 0.085090 0.172201 -0.027065 0.122170 0.013426 -0.091264 -0.084456 -0.083932 0.027290 0.080991 -0.060108 -0.010694 0.000493 -0.091993 -0.005967 -0.106523 0.166715 -0.081138 0.002631 0.103394 -0.084514 -0.081852 0.033377 -0.009322 -0.087512 -0.011904 -0.144023 -0.044003 0.000945 -0.022444 -0.020990 0.024927 -0.023227 0.023738 -0.091665 0.202151 0.178913 -0.048329 -0.088535 0.049914 0.111442 -0.025004 -0.024581 -0.007321 -0.093695 0.124593 -0.064142 -0.075255 -0.145624 -0.025395 0.128684 -0.176754 -0.007032 0.072311 0.063738 -0.043355 0.040926 -0.011353 0.076367 -0.030172
of -0.027735 -0.161194 -0.196076 0.050995 0.050012 0.101086 -0.215562 0.163084 -0.046575 0.249869 -0.033046 -0.166378 -0.214262 0.228155 -0.036792 0.037115 -0.013394 0.244259 -0.142049 -0.128727 -0.145859 -0.189010 0.023905 0.019269 0.168887 -0.053085 0.003043 0.085714 0.096609 0.101064 0.007613 0.141009 -0.090118 0.241437 0.007824 -0.025851 -0.013076 0.003241 0.129628 -0.035389 -0.021439 0.208699 -0.050907 0.114587 0.061536 0.055337 0.066778 0.122215 0.072007 -0.172290 0.092293 -0.062404 0.068730 0.100567 -0.040011 -0.045666 -0.123122 -0.036022 -0.068244 -0.173159 0.118483 0.088128 -0.022714 -0.115049 -0.030473 0.036893 -0.037433 0.139680 0.195195 0.123421 0.173076 0.110849 0.006570 0.062766 -0.197038 0.054930 -0.237110 -0.101663 -0.097365 -0.155699 -0.034221 0.129964 0.094870 -0.056061 0.115022 -0.005277 -0.074167 -0.137231 0.077624 0.095506 0.070255 -0.067864 0.073727 0.051391 0.232310 -0.093841 0.042725 0.012425 0.095877 -0.063748 -0.068848 0.102218 -0.145174 -0.011908 0.179421 -0.020017 -0.037327 -0.148804 0.184426 -0.155808 -0.028066 -0.082172 0.181426 -0.055471 -0.049151 0.009660 0.085073 -0.129224 -0.002818 0.104367 0.003370 -0.104503 -0.127253 0.039017 -0.085898 0.010866 0.191217 -0.150795 0.024094 -0.023458 0.067827 0.009976 0.014998 0.291889 0.003435 -0.071795 0.016068 -0.035055 -0.111992 -0.005460 -0.029124 0.161002 0.180626 0.068890 0.159206 -0.028353 0.024307 -0.011969 0.047372 0.015946 0.020843 0.021006 0.065270 -0.108744 -0.357726 0.049798 0.157028 0.124671 0.211395 -0.032245 0.074713 0.049935 -0.064731 0.080267 0.019514 0.040015 -0.049972 0.119455 -0.044236 0.035098 0.007112 0.050314 0.211765 0.067987 -0.106335 0.018334 0.095783 -0.031817 -0.179488 0.029169 0.195473 -0.151959 0.190843 -0.014365 -0.094989 0.073104 -0.034854 0.112263 -0.029677 -0.193585 0.093198 -0.006573 -0.180915 -0.159211 0.166178 -0.089129 -0.019243 0.023297 0.079543 0.048920 0.044372 -0.009497 -0.133172 0.135940 -0.061644 -0.069811 0.144069 0.112922 -0.089409 0.008706 0.077971 -0.032570 -0.046579 -0.013083 0.131734 0.021017 0.003202 -0.135033 0.136121 0.091214 -0.018221 0.072085 -0.105485 -0.081891 0.169241 0.119675 -0.011375 0.000522 -0.004995 -0.028684 0.141609 0.097908 0.082051 0.262739 -0.021368 -0.075634 -0.026655 0.206437 0.059755 0.061850 0.190326 -0.060335 0.078111 0.125094 -0.046434 -0.131951 0.033992 0.000294 -0.197850 -0.077781 0.010230 -0.055263 -0.136237 -0.029333 0.042615 -0.075472 0.055062 0.016880 0.155252 -0.085756 -0.001224 -0.101860 -0.021647 0.073799 -0.066222 -0.052475 0.066966 0.026362 0.018824 -0.008011 -0.245855 0.024345 0.201133 -0.010159 0.037263 -0.069493 0.076969 0.063849 -0.039392 -0.221173 0.057311 -0.177507 -0.091502 0.079902 0.102549 -0.098762 -0.067751 -0.060116 -0.097595 0.055951 0.032671 -0.039086 -0.036436 -0.008381 0.154696 -0.096957 -0.012983 0.062760 0.124363 -0.114141 0.005035 0.085524 -0.085131 -0.097526 -0.075483 0.006700 0.043464 -0.080922 -0.007890 -0.014442 -0.025181 -0.050471 -0.061537 0.037679 -0.052724 0.012444 0.076457 -0.038731 0.002715 -0.150329 0.019502 0.005007 -0.056233 -0.134161 -0.137553 0.088381 -0.072355 -0.175318 -0.051773 0.038066 0.060674 0.048614 0.001652 -0.095932 -0.217990 0.063411 -0.049846 0.005165 0.072319 -0.155121 0.005020 -0.045855 -0.081399 0.086581 0.129351 0.022384 -0.189855 0.122531 0.129480 0.083354 -0.092068 -0.032669 0.083925 -0.048110 0.119411 0.079815 0.002420 0.179436 -0.059285 -0.067844 -0.135331 -0.017229 0.066719 0.021116 0.037792 0.016025 0.134964 -0.098864 0.025766 0.077355 0.012022 -0.007697 0.161934 -0.021879 -0.017510 0.007308 0.050182 -0.029582 0.006022 0.030666 0.025009 -0.106969 -0.027708 0.231655 0.159808 0.032959 -0.028690 -0.112222 -0.078628 -0.050645 -0.156888 -0.177761 -0.124178 -0.249489 -0.023103 0.010615 -0.113184 -0.062531 0.024442 0.006610 -0.070502 0.047633 -0.025935 -0.091376 -0.043674 -0.041151 0.243352 0.021800 0.000592 -0.075510 -0.069344 -0.051593 0.055817 0.052633 0.031806 -0.016191 -0.024530 0.094310 0.146493 0.063627 -0.129258 0.084386 0.033932 0.153016 -0.022607 0.133068 0.088575 0.065532 -0.098996 0.105168 0.035242 0.013589 0.123618 0.058996 -0.039324 -0.080354 0.095308 0.048376 0.007646 0.185718 0.012298 0.005237 0.136462 -0.082338 0.051728 0.020604 -0.007036 -0.010964 -0.013059 -0.032961 -0.126020 0.126262 -0.082142 0.041085 0.044791 0.104375 -0.003773 0.005683 0.046228 -0.032639 0.078912 0.122926 -0.137174 -0.019965 -0.060540 0.015650 0.092398 0.025540 0.081794 0.039054 -0.219533 -0.014753 -0.082814 0.037871 -0.037801 -0.073145 0.060338 -0.025570 -0.057262 -0.160248 0.126097 -0.100309 -0.150269 -0.078260 0.030610 -0.011707 -0.042979 0.024875 0.272719 -0.005833 -0.160954 0.004052 -0.126141 -0.010785 -0.091031 -0.025105 -0.244058 -0.177258 0.075009 -0.103489
